163 300
roe -0.13671875 -0.10839844 -0.088378906 0.18359375 -0.036865234 0.1875 -0.26953125 0.041015625 0.10058594 0.22363281 -0.33007812 -0.028076172 0.25976562 -0.09667969 -0.044433594 -0.007232666 -0.25 0.25976562 -0.31054688 -0.21191406 -0.26171875 -0.15234375 0.34179688 0.07080078 -0.003967285 -0.3046875 -0.14746094 0.5859375 -0.05029297 -0.1484375 -0.13964844 0.25 0.33203125 -0.15625 -0.16308594 0.40429688 -0.022216797 0.16015625 0.29882812 -0.103515625 0.22460938 -0.14941406 0.095703125 -0.15039062 -0.15332031 -0.17089844 0.3984375 0.19628906 0.03173828 -0.017211914 -0.17773438 0.12597656 0.16601562 0.2578125 -0.052490234 -0.068359375 0.10644531 0.052490234 -0.06347656 -0.5859375 -0.032714844 -0.13671875 -0.31445312 -0.013793945 0.045166016 -0.033935547 -0.075683594 -0.17675781 0.13183594 0.013122559 0.35351562 -0.067871094 0.08544922 0.16210938 0.080566406 -0.06982422 -0.43554688 -0.043945312 0.2109375 -0.12597656 0.10253906 -0.22949219 -0.020996094 0.016235352 0.35351562 0.14355469 0.051513672 -0.020629883 0.059814453 -0.26171875 -0.19238281 0.030883789 0.18066406 0.31054688 0.1875 -0.39648438 -0.21972656 -0.07519531 0.34179688 -0.21972656 -0.111328125 -0.06225586 0.12890625 -0.42382812 -0.3359375 0.021728516 0.16992188 0.16601562 0.26171875 -0.023803711 0.009460449 -0.1015625 0.34179688 0.45703125 -0.21582031 0.020263672 0.44140625 -0.059326172 0.018188477 0.020507812 0.096191406 0.22851562 -0.09082031 -0.037597656 0.30859375 -0.1796875 -0.21777344 0.13867188 -0.17675781 0.1328125 -0.009094238 -0.12011719 0.03173828 0.0703125 0.01965332 -0.08886719 -0.3359375 -0.099609375 0.17773438 0.3125 0.21386719 -0.22167969 -0.06542969 0.16210938 -0.0009727478 0.24609375 -0.28125 0.59765625 -0.53125 -0.031982422 0.29296875 -0.034179688 -0.71875 0.1484375 -0.19042969 -0.18652344 -0.37109375 0.09082031 -0.5625 -0.10888672 0.08935547 -0.23828125 0.27539062 0.27929688 0.20898438 -0.44140625 -0.096191406 0.07714844 -0.087402344 0.20019531 -0.54296875 -0.013977051 -0.046875 0.10644531 -0.546875 -0.05078125 0.5390625 0.125 0.095703125 0.04736328 0.20605469 -0.55859375 0.08691406 -0.09326172 0.09472656 -0.12695312 0.01361084 0.099121094 -0.049560547 0.38671875 -0.41210938 0.10498047 -0.12597656 -0.013549805 0.25390625 0.0703125 0.2734375 -0.18457031 0.18554688 0.2421875 0.11376953 -0.04736328 -0.2421875 -0.13085938 -0.36328125 -0.4609375 0.20800781 -0.22851562 0.05078125 -0.01159668 -0.12011719 0.5703125 -0.45507812 0.19238281 0.18359375 -0.052734375 -0.026245117 0.06298828 0.41015625 0.265625 0.010070801 -0.007171631 -0.068847656 0.19726562 0.36328125 -0.22070312 -0.025268555 0.296875 -0.22265625 0.111816406 0.40039062 -0.28320312 0.15234375 -0.18847656 -0.05444336 -0.27734375 0.034423828 -0.05493164 -0.07373047 0.04296875 0.10546875 0.052978516 -0.14453125 -0.3984375 -0.018676758 -0.64453125 0.064453125 0.2734375 0.22558594 0.52734375 -0.24511719 -0.328125 0.14355469 0.296875 0.22265625 -0.23632812 0.033447266 0.011169434 0.32421875 0.018310547 0.21191406 -0.12109375 -0.125 0.18261719 0.13085938 -0.09423828 -0.30078125 0.07861328 0.18457031 -0.15332031 -0.19335938 -0.22460938 -0.16210938 0.08544922 0.34179688 0.33984375 -0.18261719 0.2734375 -0.21289062 0.13964844 -0.4375 0.020507812 0.37695312 -0.18164062 0.021850586 -0.13085938 0.24902344 0.2265625 -0.3203125 0.45898438 0.13769531 -0.296875 -0.068359375 -0.046875 -0.111328125 0.010559082 -0.095703125 0.095214844 0.49414062 0.4921875
expenses -0.096191406 0.13476562 0.013000488 0.104003906 -0.09472656 -0.02368164 -0.12207031 -0.006652832 0.071777344 -0.32617188 0.025024414 0.17578125 -0.17871094 0.2578125 -0.107421875 0.12988281 0.23339844 -0.3046875 0.16308594 -0.01373291 0.2578125 -0.11279297 0.23925781 -0.18261719 -0.13671875 0.12695312 -0.076171875 0.0024108887 -0.33203125 -0.115234375 0.20800781 -0.28125 0.20703125 0.17382812 0.21386719 -0.22460938 0.03173828 0.25195312 -0.030517578 -0.11279297 0.26171875 -0.0015640259 0.29492188 -0.33789062 -0.41601562 -0.24023438 0.08691406 0.25390625 -0.36914062 -0.03955078 0.125 -0.31445312 0.20703125 -0.15332031 -0.27539062 0.033203125 -0.111328125 -0.040771484 0.23632812 0.083496094 -0.006866455 -0.10058594 -0.15039062 -0.0703125 0.3671875 -0.31835938 0.01574707 0.004058838 0.024780273 0.024291992 -0.27929688 -0.26953125 -0.07324219 0.02319336 -0.042236328 -0.18652344 0.25 -0.099609375 -0.20019531 0.107421875 0.046875 -0.13378906 -0.2890625 0.29882812 -0.107421875 -0.23339844 -0.25976562 0.421875 -0.15136719 0.14941406 0.3515625 0.005065918 -0.14453125 -0.38085938 -0.0031280518 -0.13378906 -0.03112793 0.19824219 0.13183594 0.018432617 -0.10253906 -0.43359375 0.34375 0.09667969 0.140625 0.17578125 -0.071777344 0.14941406 -0.11328125 -0.14355469 0.045898438 -0.034423828 0.265625 0.15136719 -0.24414062 0.021484375 0.41601562 -0.13378906 0.22460938 0.20214844 0.07714844 0.022338867 0.1875 -0.17773438 0.265625 0.2421875 -0.12060547 0.16210938 0.44140625 0.09667969 -0.37890625 -0.0154418945 -0.27734375 -0.078125 -0.2578125 0.19238281 -0.10498047 0.29296875 0.17480469 0.092285156 0.015014648 -0.02355957 0.16894531 0.29492188 0.10546875 -0.10107422 0.119140625 0.046875 -0.16308594 0.0058898926 -0.35351562 0.32226562 -0.016479492 0.23144531 0.10986328 0.061523438 -0.01928711 -0.1796875 0.060791016 -0.12890625 0.13867188 0.16992188 0.023071289 0.34179688 -0.18261719 0.18945312 -0.13378906 0.05419922 0.106933594 0.010070801 0.1484375 -0.2734375 0.0016174316 -0.04321289 -0.103515625 -0.0030059814 0.34375 0.12109375 -0.35351562 0.19335938 -0.34179688 0.0058898926 -0.071777344 -0.05053711 -0.30859375 0.125 0.27734375 0.25585938 0.19140625 0.20996094 0.17773438 -0.12988281 -0.07763672 0.13183594 -0.15234375 0.32421875 0.088378906 -0.15039062 0.125 -0.40820312 0.06640625 0.06982422 -0.12207031 -0.051513672 -0.026977539 -0.26757812 -0.06298828 -0.09716797 0.36523438 -0.072265625 0.07080078 0.3046875 -0.11621094 0.28710938 -0.091308594 0.20703125 -0.03955078 0.43164062 0.03466797 -0.515625 -0.10253906 0.03857422 0.29296875 0.012878418 -0.27929688 0.025878906 -0.10253906 -0.087402344 0.16992188 0.04321289 0.19042969 0.03173828 0.38085938 -0.1171875 -0.10107422 0.00390625 0.12451172 -0.06201172 0.023803711 -0.16308594 0.13964844 -0.012268066 0.4453125 0.030517578 0.02368164 -0.012756348 -0.06689453 -0.1796875 0.31054688 -0.36523438 -0.106933594 -0.03515625 -0.13964844 0.01184082 0.03564453 -0.12011719 0.008361816 -0.027709961 0.014282227 0.000289917 0.33398438 -0.038330078 0.23242188 0.083496094 -0.28125 0.40820312 -0.2890625 -0.15234375 0.046142578 -0.032958984 -0.0011978149 0.095214844 0.16308594 0.05444336 0.011108398 -0.06225586 0.17089844 0.084472656 -0.18261719 -0.22167969 0.16210938 -0.095214844 0.024658203 0.20507812 0.045898438 0.33398438 0.15234375 0.39257812 0.24316406 0.109375 -0.09814453 0.21777344 -0.18164062 -0.045898438 -0.017333984 -0.107910156 0.35742188 0.19824219 -0.05908203 0.014892578
clocked 0.064941406 0.1328125 0.27734375 -0.045410156 0.0859375 0.0055236816 -0.15039062 0.103027344 0.028808594 0.3046875 -0.14355469 -0.033447266 -0.16699219 -0.0011138916 -0.03149414 0.28320312 -0.051757812 0.19824219 -0.25195312 -0.32617188 -0.27929688 0.1171875 -0.140625 -0.106933594 0.16699219 -0.4375 -0.20214844 0.3515625 -0.23730469 0.15527344 -0.014221191 -0.16992188 0.05078125 -0.1953125 -0.023071289 -0.048828125 -0.20800781 -0.14355469 0.17089844 0.36914062 0.042236328 -0.08251953 0.10107422 0.31054688 0.10058594 0.087402344 -0.0031585693 -0.08105469 0.23046875 -0.014770508 0.0546875 -0.038330078 0.13378906 0.18652344 -0.12060547 0.38476562 0.05859375 -0.022094727 0.026000977 0.04248047 -0.23730469 -0.14550781 -0.25 -0.328125 0.10986328 0.15917969 -0.203125 -0.055664062 -0.064453125 -0.18847656 -0.16796875 0.31835938 0.359375 -0.018188477 -0.051757812 -0.114746094 -0.09814453 -0.14355469 -0.21386719 -0.2734375 0.37109375 0.08642578 0.027954102 0.091308594 0.24511719 0.10644531 0.171875 0.25976562 -0.13476562 0.096191406 0.060546875 -0.06347656 0.08251953 -0.0009384155 -0.25585938 -0.36132812 -0.056396484 0.045898438 -0.11621094 -0.17382812 0.12695312 -0.06591797 -0.083984375 0.10107422 0.37109375 -0.41015625 0.061767578 -0.20996094 0.07470703 0.038330078 0.25 -0.05859375 -0.11621094 0.13183594 -0.27539062 -0.012512207 -0.11816406 -0.052001953 0.22558594 -0.0625 0.027832031 0.37304688 0.21972656 0.15625 0.052978516 0.41992188 0.088378906 0.061523438 -0.12060547 0.171875 -0.390625 -0.03466797 0.41992188 -0.1875 0.076171875 -0.02331543 -0.049072266 0.20996094 -0.19824219 0.018066406 -0.359375 0.15136719 -0.12597656 -0.11816406 -0.16796875 0.099609375 0.1015625 -0.09814453 0.15917969 -0.18554688 0.087402344 0.20605469 -0.017944336 0.171875 -0.16601562 0.41992188 0.03564453 0.078125 -0.0007209778 -0.33984375 -0.20703125 -0.024536133 0.47851562 -0.013977051 -0.010070801 0.0049438477 0.075683594 -0.107910156 0.1484375 -0.203125 -0.14941406 -0.024291992 0.15136719 -0.34375 -0.33203125 -0.13085938 0.119140625 -0.15136719 0.19726562 0.06542969 0.39648438 0.06640625 0.09277344 -0.140625 -0.23730469 -0.14257812 -0.052246094 0.24902344 -0.265625 -0.1953125 0.35546875 -0.055908203 -0.05419922 -0.022094727 0.13574219 0.74609375 0.3359375 0.22558594 0.06982422 0.09375 0.08935547 0.09667969 -0.021118164 0.15136719 0.11328125 -0.17480469 -0.10839844 0.103027344 -0.060058594 0.088378906 0.06982422 -0.1328125 0.1015625 -0.19042969 0.0107421875 -0.016723633 0.018920898 -0.063964844 -0.04345703 -0.25195312 -0.20410156 0.09375 0.057373047 0.039794922 -0.095703125 -0.020141602 0.0060424805 -0.10888672 -0.18066406 0.013183594 0.16894531 -0.109375 0.17382812 -0.022583008 -0.09423828 0.100097656 0.13183594 -0.37890625 0.13476562 -0.033447266 -0.0087890625 0.056152344 0.13867188 -0.54296875 0.16601562 -0.11816406 -0.37890625 0.18164062 0.20996094 -0.29492188 -0.07519531 0.016723633 0.12597656 0.5390625 -0.045166016 0.17871094 0.18945312 0.019897461 0.123046875 -0.16699219 0.084472656 0.13085938 0.23828125 0.053466797 0.22460938 0.0107421875 -0.01977539 -0.14746094 0.080078125 0.2578125 0.09667969 -0.06298828 -0.17578125 -0.059570312 0.16015625 -0.15234375 -0.29296875 -0.10058594 -0.04663086 0.103515625 0.080078125 0.29882812 -0.049072266 -0.037841797 -0.026977539 0.13769531 -0.122558594 0.06201172 0.040283203 0.14550781 0.22363281 -0.1796875 -0.36523438 0.25 -0.26953125 -0.076660156 -0.11767578 -0.10107422 0.044677734 -0.12792969
detailed -0.17675781 -0.18457031 -0.115722656 -0.12109375 -0.059326172 -0.07861328 0.11621094 0.0099487305 0.107910156 -0.15722656 0.031982422 0.072753906 0.021240234 0.23535156 -0.075683594 0.18457031 -0.041992188 -0.02722168 -0.20117188 -0.12158203 -0.049072266 -0.052001953 -0.38085938 0.14257812 -0.0859375 0.21679688 0.015991211 -0.115722656 0.021240234 -0.1875 -0.026855469 -0.038085938 -0.12695312 0.18652344 -0.27539062 -0.118652344 -0.055664062 -0.19628906 0.05908203 -0.028076172 0.08154297 -0.01171875 -0.08984375 0.19042969 0.08935547 -0.1796875 -0.22167969 0.05834961 -0.068359375 0.08984375 0.22265625 -0.05859375 0.06347656 -0.072265625 -0.15722656 0.013122559 -0.12695312 -0.40039062 0.19433594 0.13476562 -0.103027344 -0.14453125 -0.23925781 -0.0067749023 0.08105469 0.06542969 0.038085938 0.03955078 0.16601562 -0.21777344 -0.039794922 -0.048095703 0.31835938 -0.0053710938 0.041748047 0.15527344 0.12890625 0.22558594 0.0859375 0.16015625 -0.028442383 0.18359375 -0.09814453 0.12011719 0.16015625 -0.25585938 -0.075683594 0.15722656 0.013000488 0.08544922 0.17675781 -0.17773438 -0.03173828 0.17285156 0.026245117 0.0078125 -0.18164062 -0.05419922 0.13964844 0.16113281 -0.13378906 0.02709961 -0.13476562 -0.33984375 -0.041015625 -0.030395508 0.06982422 0.24023438 0.09375 -0.043701172 -0.061035156 -0.19335938 -0.029174805 -0.30078125 0.22265625 0.0053710938 0.080078125 0.036132812 0.3046875 0.1875 -0.42382812 0.010498047 -0.087890625 -0.20605469 0.084472656 0.08544922 -0.06201172 -0.04736328 -0.10986328 0.109375 -0.375 -0.21777344 -0.08984375 -0.008972168 0.23339844 -0.0859375 0.09814453 -0.18359375 -0.032226562 0.20800781 -0.017700195 0.24804688 -0.0703125 0.040039062 -0.103027344 0.053710938 -0.1015625 -0.08154297 -0.27539062 0.092285156 -0.014709473 -0.07910156 0.08544922 0.0032806396 0.08496094 -0.17480469 0.034423828 0.010253906 -0.014892578 0.15917969 0.24023438 0.10058594 0.009338379 -0.057861328 -0.052490234 -0.014953613 0.09326172 -0.2109375 -0.22167969 -0.06689453 0.06347656 -0.044189453 0.07128906 -0.09765625 0.12695312 -0.011047363 -0.115722656 0.06591797 -0.107910156 -0.064453125 -0.11425781 0.06201172 -0.029174805 -0.0010070801 -0.08300781 0.15429688 0.028686523 0.07714844 -0.11328125 0.16601562 0.08105469 -0.049560547 0.010803223 -0.359375 0.20410156 0.13769531 0.071777344 -0.296875 0.04296875 -0.14160156 -0.036621094 0.25976562 -0.18261719 0.15039062 0.13671875 0.083984375 0.125 -0.19042969 -0.0020141602 -0.04663086 -0.020507812 0.24316406 0.053955078 -0.10107422 -0.020507812 -0.15332031 0.27539062 0.296875 0.23730469 -0.072265625 0.20703125 -0.040771484 -0.40039062 -0.2578125 0.22851562 -0.37890625 -0.050048828 0.203125 0.04663086 -0.13574219 0.06982422 -0.1875 0.17773438 -0.040283203 0.006500244 -0.10107422 0.1171875 -0.045654297 0.13867188 -0.30078125 0.064453125 -0.059326172 -0.12695312 -0.004852295 0.0703125 -0.07373047 -0.083496094 -0.071777344 0.07128906 0.10888672 -0.055908203 0.36132812 -0.19628906 -0.028686523 -0.119628906 -0.07861328 -0.08886719 -0.375 -0.17089844 -0.03564453 0.08105469 -0.16796875 -0.22167969 -0.30078125 -0.06542969 0.27929688 -0.28125 -0.06298828 -0.02734375 -0.07910156 0.21972656 0.31835938 -0.013977051 0.17871094 0.20019531 -0.034179688 0.015380859 -0.12695312 0.015563965 0.07080078 -0.016479492 0.1171875 -0.17871094 0.036376953 0.03564453 0.18066406 0.021728516 0.265625 0.27734375 -0.095703125 -0.18457031 -0.06591797 -0.015136719 0.060546875 -0.16015625 -0.033935547 0.036621094 0.031982422 -0.026489258 -0.15429688
potential -0.056884766 0.26953125 0.07910156 -0.002105713 -0.29296875 -0.033447266 -0.020385742 0.07470703 0.10546875 0.12988281 -0.20605469 -0.33007812 0.18554688 -0.08642578 -0.067871094 0.040527344 -0.20507812 0.1875 0.04711914 -0.061279297 -0.106933594 -0.21191406 -0.4765625 0.16601562 0.02722168 -0.056396484 -0.091796875 0.11816406 -0.055908203 0.12792969 0.10644531 0.064453125 -0.063964844 -0.31054688 -0.033935547 0.057373047 0.084472656 0.049560547 0.048339844 -0.10644531 0.03100586 0.048339844 -0.079589844 -0.008911133 -0.33007812 -0.15625 -0.047851562 -0.0065307617 -0.032958984 -0.14941406 0.080566406 0.109375 -0.19238281 0.029174805 -0.03125 -0.053466797 0.12451172 -0.27734375 0.28515625 0.16308594 -0.10644531 0.029174805 0.17382812 0.17675781 -0.24511719 -0.12158203 0.1328125 0.049072266 -0.08251953 0.16210938 -0.22167969 0.08984375 0.18066406 0.03857422 -0.08691406 0.0012741089 -0.05859375 0.29882812 -0.01184082 0.19335938 -0.087402344 0.0859375 -0.19335938 -0.060546875 0.103027344 -0.28710938 -0.16894531 0.15234375 -0.13671875 -0.091796875 0.16210938 -0.115234375 -0.025878906 0.07373047 0.021362305 -0.15722656 -0.18847656 0.13671875 0.07763672 0.049316406 -0.21386719 -0.10546875 -0.035888672 -0.100097656 0.19335938 0.0027618408 -0.111816406 -0.12890625 0.19238281 0.118652344 0.048583984 0.15722656 -0.026123047 -0.049804688 0.18359375 0.080078125 0.025268555 0.02355957 0.20214844 0.0022583008 -0.040283203 0.16308594 -0.038330078 0.06982422 -0.03540039 0.2734375 -0.004760742 0.0023040771 -0.1328125 0.09716797 0.06347656 0.07373047 -0.140625 0.02734375 0.07763672 -0.21289062 0.048095703 0.10986328 0.15527344 0.19628906 0.057617188 -0.13867188 0.02331543 0.3046875 0.29492188 -0.14550781 0.08935547 0.025390625 -0.15234375 -0.07861328 -0.04736328 0.07714844 -0.0029144287 -0.16601562 0.020019531 0.10253906 0.083984375 -0.33007812 -0.10644531 -0.12792969 0.033203125 0.19335938 0.08642578 -0.11230469 0.123046875 0.19042969 0.041992188 0.0625 0.029541016 0.09472656 -0.041748047 -0.106933594 -0.17578125 -0.07080078 0.1484375 -0.022705078 -0.010925293 -0.16699219 -0.06542969 0.07470703 -0.0025939941 -0.032714844 0.0006942749 0.041748047 -0.19824219 -0.09765625 -0.050048828 0.014160156 0.24316406 0.06738281 -0.1171875 0.084472656 -0.014160156 0.057128906 -0.05908203 0.1953125 -0.20117188 -0.14941406 0.0703125 -0.5390625 0.13085938 0.0546875 0.046875 -0.22851562 0.09326172 -0.024047852 0.01977539 0.07470703 -0.04272461 0.10107422 -0.01550293 0.056396484 -0.19335938 0.080078125 -0.052978516 -0.095214844 -0.021362305 -0.15820312 -0.05908203 0.13476562 -0.016601562 0.09326172 -0.08935547 0.045898438 0.03173828 -0.080078125 0.08105469 -0.11816406 0.053222656 -0.14160156 -0.052734375 0.18261719 0.103515625 0.029174805 -0.07373047 -0.11035156 0.020507812 -0.07910156 -0.033935547 -0.13085938 -0.029052734 0.08300781 0.13574219 -0.009216309 -0.114746094 0.06640625 0.18457031 0.04345703 0.17773438 -0.0050964355 -0.051757812 0.029174805 0.1796875 -0.0030975342 -0.03466797 -0.02746582 0.17480469 0.029785156 -0.31445312 -0.09082031 -0.072753906 0.023071289 -0.25195312 0.08984375 -0.0546875 0.09472656 0.0018615723 0.09423828 -0.18652344 -0.17285156 0.14648438 0.059570312 0.040527344 -0.0074768066 -0.10888672 0.114746094 0.060546875 -0.14453125 0.026245117 0.072753906 -0.0859375 0.15234375 0.10449219 -0.005279541 -0.26367188 0.040527344 0.010498047 0.040039062 -0.008666992 -0.034423828 -0.15234375 -0.053466797 -0.24316406 -0.15527344 0.01159668 0.14355469 0.110839844 -0.092285156 -0.09326172 -0.18945312
carried 0.03173828 0.13769531 0.052490234 -0.012390137 0.0026550293 -0.26171875 0.072753906 0.0095825195 0.3359375 -0.047607422 0.16699219 -0.115234375 -0.068359375 0.23925781 -0.00015830994 0.20214844 -0.107910156 -0.07324219 -0.1875 0.049804688 -0.19628906 -0.08886719 -0.12988281 0.16015625 -0.03112793 -0.38476562 -0.17675781 -0.19335938 -0.036621094 0.018554688 0.06225586 -0.28710938 0.038330078 0.12890625 0.10839844 -0.04736328 -0.115234375 -0.07519531 0.08642578 -0.09667969 0.044921875 0.15917969 -0.23339844 0.17773438 -0.030517578 -0.1640625 -0.34765625 -0.038330078 0.15136719 -0.026245117 -0.051513672 0.109375 0.03857422 0.018676758 0.010070801 -0.29101562 -0.14746094 -0.0013656616 0.03881836 -0.0026550293 -0.00092315674 0.18554688 0.08642578 -0.088378906 -0.001373291 -0.017944336 -0.17871094 0.22265625 -0.24023438 0.012634277 -0.22363281 0.032958984 0.26953125 -0.20117188 -0.22558594 -0.06298828 0.055419922 0.14355469 -0.01928711 0.059326172 -0.12402344 -0.08642578 0.11328125 -0.13476562 0.107421875 0.0546875 0.19140625 0.099609375 -0.118652344 0.20800781 0.07128906 0.15332031 0.16113281 0.10644531 0.10644531 -0.036621094 -0.16503906 0.19335938 0.083984375 0.07470703 -0.079589844 -0.18554688 0.12890625 0.09814453 -0.04736328 -0.15527344 -0.057128906 -0.11230469 -0.15136719 -0.041015625 -0.04272461 0.18164062 -0.2265625 -0.12060547 -0.06982422 0.18847656 -0.1015625 0.28515625 0.20996094 0.33007812 0.026489258 0.039794922 -0.12109375 0.05078125 -0.09423828 0.18359375 0.016479492 -0.33007812 -0.059814453 -0.28710938 0.026733398 -0.068847656 -0.063964844 0.28320312 -0.079589844 0.08251953 -0.03125 0.421875 -0.15722656 -0.028686523 -0.103027344 0.123535156 -0.12158203 0.13378906 -0.1484375 0.26171875 -0.26757812 -0.140625 0.15039062 -0.33984375 0.25195312 0.05908203 -0.22167969 -0.059326172 0.016723633 -0.16113281 -0.15625 -0.2890625 0.107910156 0.2890625 0.028930664 0.21875 0.11669922 0.03466797 0.07324219 -0.31445312 0.03149414 0.036376953 0.10058594 -0.23925781 -0.19824219 -0.19433594 -0.09765625 -0.32226562 -0.040283203 0.08154297 0.06982422 -0.037109375 -0.0014648438 -0.09082031 -0.09375 -0.048339844 0.03540039 0.21484375 -0.00579834 0.084472656 0.043945312 -0.052001953 -0.063964844 -0.015258789 0.20898438 -0.0032043457 0.13085938 0.09033203 -0.16308594 0.1328125 0.25390625 0.13671875 0.20214844 -0.08154297 0.118652344 0.23632812 -0.34765625 0.06933594 0.11425781 0.118652344 0.32226562 0.03564453 0.25976562 -0.12988281 -0.018920898 0.13476562 0.053222656 0.049072266 0.01361084 -0.30273438 0.03149414 -0.006591797 0.030395508 -0.16015625 0.24902344 -0.05078125 0.057373047 -0.328125 0.04736328 -0.20214844 -0.022338867 -0.0053100586 -0.072265625 -0.27148438 0.08642578 -0.125 0.10888672 0.359375 -0.22167969 0.09716797 -0.041015625 0.0072631836 0.33789062 -0.13085938 0.030761719 0.06738281 -0.122558594 -0.07910156 0.39257812 -0.16992188 -0.043945312 -0.014343262 -0.0040893555 0.06201172 0.11816406 0.080566406 0.0546875 0.06689453 0.27734375 -0.018432617 -0.06591797 -0.2734375 0.020385742 -0.04248047 0.032714844 0.044677734 0.06298828 0.049560547 -0.0072021484 -0.09863281 0.00033950806 0.08544922 0.19042969 0.36132812 -0.0014801025 -0.0065307617 -0.07373047 0.20214844 0.29882812 -0.123535156 0.07470703 0.022827148 0.16015625 0.15429688 -0.1484375 0.30078125 0.22753906 -0.014953613 0.076660156 -0.022583008 -0.080566406 0.20605469 -0.14160156 -0.15429688 -0.08984375 -0.0703125 -0.037597656 0.122558594 -0.07470703 -0.13964844 -0.024047852 0.036132812 0.10498047 -0.018310547
share -0.05053711 -0.052246094 -0.10107422 0.16503906 -0.016113281 0.12011719 0.26171875 -0.03955078 0.111328125 0.2734375 -0.41015625 0.095703125 0.16503906 0.30664062 -0.42382812 0.011657715 -0.02709961 0.20996094 0.1953125 -0.115722656 -0.15722656 -0.23046875 -0.12597656 -0.34375 0.056152344 0.036621094 0.07128906 0.12988281 0.079589844 -0.010803223 -0.034423828 -0.13574219 -0.16601562 -0.016845703 -0.013977051 -0.08935547 0.048095703 -0.1484375 -0.05810547 0.26757812 -0.012817383 0.06982422 0.12402344 0.03857422 -0.0034637451 -0.08544922 -0.091308594 0.111816406 0.12597656 -0.00062561035 0.027954102 -0.08203125 -0.048828125 -0.0703125 -0.12060547 -0.08496094 -0.16796875 -0.03857422 0.27148438 0.07324219 0.13867188 0.04736328 -0.037353516 0.014770508 0.099121094 -0.22070312 -0.06640625 -0.2578125 0.16015625 0.1171875 -0.13574219 -0.29492188 0.24414062 0.038330078 -0.036865234 0.025146484 0.050048828 -0.1328125 0.078125 0.14160156 -0.06298828 0.014953613 0.033447266 0.19042969 -0.049316406 -0.111328125 -0.008911133 -0.24316406 -0.22558594 0.14257812 0.28125 -0.026367188 0.007659912 -0.067871094 0.13964844 -0.08203125 -0.18359375 0.006713867 0.12695312 -0.07519531 0.059326172 -0.12011719 -0.16894531 0.1953125 0.05053711 -0.10546875 -0.06347656 0.03955078 -0.0024414062 -0.045410156 0.049560547 -0.0859375 0.06591797 -0.0075683594 0.060546875 0.15820312 -0.07763672 -0.19433594 -0.09472656 -0.053710938 0.13671875 -0.06347656 -0.24609375 -0.18066406 -0.041015625 -0.1015625 0.027709961 -0.2734375 -0.11669922 0.19140625 -0.0032653809 -0.13476562 -0.12988281 0.12451172 0.080566406 -0.026489258 0.12158203 -0.015380859 -0.05126953 -0.1953125 0.20507812 -0.061767578 -0.25585938 -0.15527344 -0.019165039 -0.26757812 -0.007507324 -0.07861328 0.0021209717 0.14453125 0.2890625 0.0046081543 -0.096191406 -0.010131836 0.0054626465 -0.013793945 -0.014038086 -0.15917969 -0.057373047 0.06298828 0.12890625 0.23242188 -0.03564453 0.11621094 -0.12451172 -0.020141602 0.10986328 -0.091796875 -0.011047363 -0.029785156 -0.22070312 -0.115722656 -0.026367188 -0.27929688 -0.18359375 -0.024658203 -0.0026855469 0.19628906 -0.20507812 -0.07080078 -0.3828125 -0.0546875 0.0038757324 0.14160156 0.017578125 -0.099609375 0.13574219 0.04248047 0.018798828 0.15527344 0.06640625 -0.041015625 -0.13671875 -0.14453125 -0.030151367 0.18066406 -0.10449219 0.053955078 -0.08300781 -0.17285156 -0.26757812 0.080566406 0.34375 0.039794922 -0.29296875 -0.071777344 -0.18945312 -0.10253906 0.16015625 0.026733398 -0.15136719 0.02319336 0.029907227 0.28710938 -0.14941406 0.15722656 0.08691406 -0.110839844 0.06738281 -0.28515625 0.048583984 0.21386719 0.048095703 0.0087890625 -0.18554688 -0.15332031 -0.24316406 -0.20214844 0.25976562 0.021972656 -0.103027344 -0.03149414 0.029785156 -0.0061950684 0.24121094 -0.068847656 0.27734375 -0.23144531 -0.123046875 0.17382812 0.16796875 -0.114746094 -0.080078125 -0.044677734 0.08984375 0.11816406 -0.029296875 0.080566406 -0.24609375 0.060302734 0.09277344 0.123535156 -0.017333984 -0.0073547363 0.040039062 0.045166016 0.15625 0.0077819824 -0.40625 -0.16601562 0.071777344 -0.007507324 0.033203125 0.16894531 -0.096191406 0.095214844 -0.03564453 0.14746094 -0.24121094 0.12597656 0.091796875 0.019897461 0.048828125 -0.0099487305 0.2578125 0.12597656 -0.14648438 0.0546875 -0.19824219 -0.09326172 0.08984375 -0.013427734 -0.26367188 0.04345703 0.017578125 -0.12402344 0.111328125 0.13769531 -0.23632812 -0.17675781 -0.014038086 0.24804688 -0.14355469 -0.033203125 0.0051879883 -0.09814453 0.23046875 -0.09375 -0.009765625 -0.21386719
growth -0.06298828 -0.004119873 -0.07861328 0.18066406 -0.15625 -0.33984375 -0.19628906 -0.375 0.02331543 0.13867188 -0.25585938 -0.13574219 0.118652344 -0.16015625 -0.12792969 0.026855469 0.13574219 0.15527344 -0.1484375 -0.031982422 -0.07519531 0.04638672 0.001083374 0.111328125 -0.12792969 0.076171875 -0.028564453 0.056640625 0.06347656 0.048339844 0.02331543 -0.546875 -0.15917969 -0.2578125 0.05859375 -0.018432617 0.028930664 -0.13378906 -0.28125 0.05444336 0.16796875 0.19824219 0.1328125 0.15527344 -0.049560547 -0.25195312 0.2265625 0.051513672 -0.084472656 -0.013916016 0.29101562 -0.10839844 -0.15527344 0.095703125 0.34570312 0.049804688 -0.024169922 -0.09863281 0.16210938 -0.047607422 -0.1796875 0.084472656 -0.31640625 -0.1171875 0.03149414 0.38085938 0.125 0.059570312 0.28320312 -0.0020599365 0.040039062 -0.21484375 0.15527344 0.110839844 -0.034179688 0.0030822754 0.05883789 -0.040283203 -0.01550293 0.14941406 -0.007537842 -0.12597656 -0.14746094 0.17773438 0.048828125 0.20410156 -0.28515625 0.34570312 0.125 -0.07519531 0.33984375 -0.234375 0.1015625 0.095214844 0.05102539 -0.23339844 0.19140625 0.21582031 0.12451172 0.11621094 -0.17773438 -0.16601562 0.110839844 0.3046875 0.29882812 -0.27539062 -0.29296875 0.14746094 0.13671875 0.001083374 -0.15429688 -0.171875 -0.041015625 0.28125 0.033203125 -0.09375 -0.06640625 -0.29101562 0.20898438 -0.012634277 0.084472656 0.060302734 -0.04345703 0.05078125 -0.10595703 0.21484375 -0.19140625 0.07128906 -0.20605469 0.106933594 -0.049316406 0.171875 0.19433594 -0.12158203 0.10253906 0.29882812 0.13867188 -0.044677734 -0.03564453 0.32421875 0.16992188 -0.43359375 -0.265625 0.328125 0.09716797 -0.24121094 0.28710938 -0.020385742 0.265625 -0.15722656 -0.083496094 0.110839844 0.06982422 0.22949219 0.0022125244 0.11230469 -0.12207031 -0.10644531 0.048583984 -0.22558594 -0.18164062 -0.19726562 -0.07421875 -0.11035156 0.15136719 0.10644531 0.13964844 -0.27734375 0.040527344 -0.05517578 -0.16308594 -0.07763672 0.020385742 0.05834961 0.0703125 0.24804688 -0.012145996 -0.16503906 -0.09716797 -0.140625 -0.1875 -0.2109375 0.22363281 -0.34179688 0.099609375 -0.10449219 -0.011230469 0.40429688 0.18261719 0.017089844 -0.06298828 -0.12060547 -0.28710938 -0.052978516 0.061767578 0.063964844 -0.122558594 -0.20703125 0.17089844 -0.34179688 0.028198242 0.140625 0.265625 -0.1640625 -0.05859375 -0.018676758 0.04638672 -0.18066406 0.012268066 0.043945312 -0.06298828 -0.038085938 -0.12451172 0.34375 -0.119140625 0.042236328 0.07763672 -0.20800781 0.20605469 0.3125 0.023071289 0.10205078 -0.055419922 0.07519531 0.056884766 -0.2734375 -0.076171875 -0.24511719 0.11328125 0.13964844 -0.29882812 -0.12060547 -0.051757812 -0.10839844 -0.06347656 -0.01574707 -0.029663086 -0.068847656 0.08642578 -0.17871094 0.20507812 0.21777344 -0.071777344 0.14550781 0.12109375 -0.11816406 -0.114746094 0.04736328 -0.103515625 0.095703125 -0.15429688 -0.18554688 -0.23339844 0.041015625 0.15234375 0.068359375 0.052978516 -0.4296875 -0.12988281 -0.036865234 0.16992188 -0.21191406 0.26367188 0.15722656 0.011230469 0.35546875 -0.110839844 -0.15332031 -0.115722656 -0.061035156 -0.026367188 -0.16699219 -0.0017089844 -0.17675781 -0.12207031 -0.022583008 -0.118652344 0.18261719 -0.033691406 -0.20507812 0.15820312 0.15234375 0.37304688 0.049316406 -0.049316406 0.00390625 0.111816406 -0.114746094 -0.12060547 0.035888672 -0.1015625 0.04296875 0.018676758 -0.24902344 -0.12597656 0.08642578 0.07324219 0.05810547 0.072265625 -0.12451172
companies -0.018066406 -0.051757812 -0.024780273 0.07763672 0.009338379 -0.12695312 -0.11669922 0.16601562 0.055908203 -0.078125 -0.028808594 0.06933594 -0.10449219 -0.079589844 -0.41210938 0.19433594 0.05102539 -0.039794922 -0.021362305 0.13183594 -0.12597656 0.060791016 -0.20117188 -0.05419922 0.22753906 0.11328125 -0.048828125 0.0019454956 0.060791016 -0.19140625 0.064453125 -0.042236328 -0.0134887695 0.06738281 0.11328125 -0.053222656 0.19238281 0.0033111572 0.16015625 0.2421875 0.203125 0.171875 0.15332031 -0.21777344 0.0034332275 -0.10644531 -0.017089844 0.056396484 -0.06982422 -0.14160156 0.16796875 -0.055664062 0.036376953 0.09765625 0.064453125 0.046142578 0.045410156 -0.05859375 -0.05102539 -0.18457031 0.047607422 0.0054626465 -0.3515625 -0.0146484375 -0.18847656 0.064453125 -0.064941406 0.15039062 0.14355469 0.068359375 -0.3359375 0.08300781 0.19921875 -0.021484375 -0.076171875 -0.08935547 -0.033691406 0.32617188 -0.20800781 0.13378906 -0.18359375 -0.19921875 -0.076171875 0.125 -0.15917969 -0.010864258 -0.10546875 0.2890625 0.029663086 0.03540039 0.23242188 -0.15820312 -0.16894531 -0.05493164 0.05419922 -0.007751465 -0.09716797 -0.21582031 0.26171875 -0.12792969 0.024902344 -0.14746094 -0.057861328 -0.13574219 0.14550781 -0.099609375 -0.15039062 0.12890625 0.29101562 -0.07763672 0.00793457 0.11376953 0.024536133 -0.09472656 0.12695312 0.013000488 0.12158203 -0.064453125 0.20800781 0.14160156 -0.03857422 -0.052246094 -0.14453125 0.06640625 0.012390137 -0.07910156 -0.049560547 -0.024047852 -0.011474609 -0.032470703 -0.18847656 0.19238281 0.19921875 -0.13964844 -0.17578125 -0.022949219 0.12890625 -0.13671875 -0.020874023 -0.08935547 0.14257812 -0.18652344 0.07421875 0.19335938 0.087402344 0.072753906 0.18359375 -0.048339844 -0.055908203 -0.076660156 0.080566406 -0.07080078 -0.30664062 0.13769531 -0.07763672 0.05834961 -0.09716797 0.023925781 -0.13378906 -0.095703125 0.0025939941 0.080078125 0.0021972656 -0.103515625 0.16894531 -0.068359375 -0.21777344 -0.17480469 0.19824219 -0.12451172 -0.04736328 -0.13476562 0.1171875 -0.16992188 -0.048828125 -0.20117188 0.07324219 0.033203125 -0.30859375 -0.11425781 -0.21386719 0.19042969 -0.21289062 -0.047607422 0.025756836 -0.009155273 0.005004883 0.14257812 0.04663086 0.056152344 -0.46289062 -0.122558594 -0.03881836 -0.24804688 -0.04345703 0.01953125 -0.20214844 -0.265625 0.12988281 -0.2578125 0.026733398 -0.13085938 0.091796875 0.23632812 -0.3515625 0.09863281 0.296875 -0.24609375 -0.026245117 0.05053711 0.15527344 -0.12158203 -0.16113281 0.3828125 -0.19726562 0.29296875 0.044433594 0.08642578 -0.060546875 0.018920898 -0.036865234 -0.06201172 -0.11376953 0.10498047 -0.2734375 -0.06982422 0.022094727 -0.02722168 -0.02746582 -0.19921875 -0.20214844 0.015563965 -0.051757812 -0.007507324 0.071777344 -0.125 0.19824219 0.040283203 0.052246094 -0.16308594 -0.088378906 -0.025634766 -0.22265625 0.15625 0.44335938 -0.21875 -0.016967773 0.12158203 0.03857422 -0.203125 -0.08691406 -0.23730469 0.05493164 -0.16113281 -0.35546875 -0.072753906 0.012817383 0.08544922 0.15234375 0.15429688 -0.018554688 -0.16308594 0.17285156 0.011108398 -0.15332031 0.29882812 -0.18945312 0.021972656 -0.125 0.119628906 -0.099609375 0.18164062 0.1328125 0.014892578 -0.13476562 0.23632812 -0.03125 0.14160156 0.041015625 -0.23535156 -0.1796875 -0.09423828 0.14453125 0.11767578 -0.23925781 -0.056396484 0.103027344 -0.083496094 0.07421875 0.13476562 -0.037841797 -0.100097656 -0.21679688 0.15234375 0.16796875 -0.084472656 0.076660156 0.11328125 -0.10498047 -0.110839844
rigs -0.072753906 -0.23339844 -0.02722168 0.092285156 0.24316406 0.0033874512 -0.38671875 -0.010437012 0.19140625 0.07373047 0.33789062 0.26171875 0.08300781 -0.028198242 0.16699219 0.104003906 -0.19433594 0.057617188 -0.0625 -0.11035156 0.10546875 -0.43359375 -0.08300781 0.14453125 0.19335938 -0.12597656 -0.171875 0.057373047 0.47460938 0.015991211 -0.27929688 0.5234375 0.13574219 -0.03881836 0.1875 -0.017333984 0.034179688 0.17675781 -0.006591797 0.2109375 0.55859375 0.29882812 0.49609375 0.12695312 -0.115722656 0.024780273 -0.26367188 0.059814453 0.2578125 0.045654297 -0.19726562 -0.16113281 0.6640625 0.10644531 0.072265625 -0.22949219 0.26757812 0.096191406 0.18945312 -0.33984375 0.119140625 -0.017211914 -0.33203125 -0.052978516 -0.03173828 0.09863281 -0.37890625 0.19824219 -0.40625 -0.16113281 -0.23925781 -0.27734375 -0.06542969 0.15527344 -0.2578125 -0.25976562 -0.23242188 -0.087890625 -0.11376953 0.16894531 -0.03515625 0.14160156 -0.072265625 0.13769531 0.05810547 0.08886719 -0.10986328 0.35742188 0.119628906 0.012084961 0.19921875 0.17773438 -0.050048828 0.18164062 -0.071777344 0.057617188 0.040771484 -0.35546875 0.25195312 -0.44921875 0.55078125 -0.14648438 0.2734375 -0.38085938 0.20117188 -0.3359375 0.092285156 0.10546875 -0.033935547 0.24609375 -0.29882812 0.016357422 -0.0050354004 0.0078125 0.14257812 0.12988281 0.3984375 0.3046875 -0.26953125 0.07763672 -0.22460938 0.026000977 -0.12158203 0.16992188 0.34375 0.088378906 -0.14257812 0.25390625 -0.46875 0.2265625 0.008483887 0.091796875 -0.10498047 -0.12890625 0.01977539 -0.13769531 -0.0017089844 -0.18652344 0.057128906 -0.06542969 -0.05493164 -0.23925781 0.09667969 0.18066406 0.24707031 0.34765625 -0.16894531 -0.17480469 -0.20898438 0.14160156 0.29101562 -0.3046875 -0.017211914 -0.05126953 -0.26757812 0.55078125 -0.14453125 0.03881836 -0.15429688 -0.17871094 0.34765625 0.37890625 -0.04638672 0.032958984 0.026733398 0.05517578 -0.5078125 -0.0546875 -0.296875 -0.21191406 -0.27734375 -0.16210938 -0.16796875 -0.14355469 -0.20410156 -0.42382812 0.057861328 -0.033691406 -0.30859375 -0.016113281 -0.5859375 0.07763672 -0.1484375 -0.18457031 0.12695312 0.05419922 0.38671875 -0.04711914 0.24609375 0.28515625 -0.59375 0.36523438 -0.2734375 -0.041992188 -0.16113281 0.38085938 -0.31054688 0.25195312 -0.12695312 -0.052734375 0.122558594 -0.08203125 -0.20898438 -0.07373047 -0.38085938 0.16308594 0.056640625 -0.04711914 0.24316406 0.46679688 0.40039062 0.25390625 -0.37695312 0.038330078 -0.18359375 -0.13183594 -0.18066406 -0.110839844 0.04272461 -0.109375 0.03564453 0.007873535 0.17871094 0.2421875 0.14257812 0.08691406 -0.296875 0.23632812 0.16015625 -0.13085938 -0.057128906 0.008422852 0.13183594 -0.31445312 -0.13867188 0.045654297 0.26953125 -0.26953125 -0.08496094 -0.11230469 0.12695312 0.07861328 -0.265625 -0.1328125 -0.27929688 -0.19726562 0.20019531 0.033447266 -0.35546875 -0.035888672 -0.08984375 -0.16992188 -0.15234375 0.12060547 0.18652344 -0.265625 0.06298828 -0.51171875 0.01940918 -0.19335938 0.20800781 0.008361816 0.10888672 0.030273438 0.044921875 0.041992188 -0.38085938 -0.15234375 -0.11035156 0.31054688 0.029663086 0.38085938 -0.140625 0.011962891 0.055419922 0.36914062 -0.2578125 0.017700195 -0.07714844 -0.15625 -0.061767578 -0.107421875 -0.052490234 0.07128906 0.026611328 -0.3984375 0.05102539 -0.29882812 0.296875 0.12597656 -0.16699219 -0.19433594 0.0016860962 -0.10546875 0.31445312 -0.110839844 0.010131836 0.171875 -0.063964844 -0.18554688
cor -0.37109375 0.17871094 -0.13574219 0.012634277 0.099609375 -0.04345703 -0.0154418945 0.03100586 -0.08203125 -0.005218506 -0.1484375 -0.31054688 -0.06298828 0.26953125 0.08154297 0.2109375 0.13378906 0.27148438 0.021240234 0.15136719 -0.119628906 -0.33203125 -0.039794922 -0.09277344 -0.1796875 0.029785156 -0.13671875 0.039794922 -0.087402344 0.067871094 -0.119628906 0.18847656 -0.08886719 -0.25390625 -0.14257812 -0.14746094 -0.084472656 0.088378906 -0.091796875 -0.3125 0.032470703 -0.021484375 0.032470703 0.15039062 0.122558594 0.10986328 -0.09472656 -0.0138549805 -0.3359375 0.265625 -0.09375 0.34179688 -0.076660156 -0.07373047 -0.26171875 0.10546875 -0.22460938 -0.076660156 -0.014831543 0.06933594 -0.33789062 -0.032470703 -0.265625 0.01928711 0.020629883 -0.20214844 -0.11816406 -0.23535156 -0.037841797 0.114746094 0.23144531 -0.08203125 -0.088378906 -0.23925781 -0.07128906 0.1796875 0.087402344 0.09472656 -0.123535156 0.16601562 -0.12695312 0.15917969 0.04663086 -0.047851562 -0.27148438 0.21679688 -0.3359375 0.30859375 -0.048339844 -0.17675781 0.068847656 -0.31640625 -0.009643555 -0.19238281 -0.11328125 0.18164062 -0.11767578 -0.09326172 0.36328125 -0.12890625 0.07861328 0.24609375 0.10595703 -0.071777344 -0.022460938 -0.078125 0.18457031 0.09863281 -0.20898438 0.27539062 -0.34765625 -0.05029297 0.10253906 -0.22753906 0.29101562 0.15625 0.14257812 -0.068359375 -0.20703125 0.018188477 0.17675781 -0.119140625 -0.063964844 0.18554688 0.17675781 -0.22070312 -0.29296875 0.09472656 0.44726562 0.29296875 -0.16601562 0.07470703 -0.079589844 -0.09375 -0.21484375 0.37695312 -0.29882812 0.111328125 0.19628906 0.1484375 0.24023438 -0.17480469 -0.234375 -0.0035858154 -0.12402344 -0.37304688 0.0625 0.055664062 -0.30078125 0.06689453 -0.033691406 -0.58984375 -0.05859375 0.16894531 0.0065612793 -0.20117188 0.07421875 0.45507812 -0.07421875 -0.19921875 0.041992188 0.16796875 0.03112793 -0.07421875 -0.20507812 -0.13183594 0.046142578 0.024291992 -0.07373047 0.13476562 0.024414062 -0.051513672 -0.12207031 -0.11767578 -0.017089844 0.57421875 0.19042969 -0.17578125 0.26171875 0.015258789 -0.15527344 0.33789062 -0.02368164 -0.091796875 -0.033691406 0.28125 0.296875 -0.027832031 0.21191406 0.028686523 0.12792969 -0.33984375 -0.14648438 0.1953125 0.30273438 0.059570312 -0.03466797 -0.0036773682 0.015014648 0.16601562 -0.14648438 -0.051757812 -0.31054688 -0.04345703 -0.10498047 0.026000977 0.024902344 0.22460938 -0.012451172 0.20019531 0.07373047 -0.10498047 -0.234375 0.030517578 -0.028442383 -0.002090454 -0.099121094 -0.20214844 -0.18457031 0.13769531 0.018066406 -0.08496094 -0.23730469 -0.006225586 0.018554688 -0.05493164 -0.12988281 0.057617188 0.123046875 0.12792969 -0.21777344 0.047607422 -0.17480469 -0.14453125 -0.02722168 -0.05102539 0.23730469 0.095214844 0.2890625 0.21777344 -0.056640625 0.047607422 0.09472656 -0.020141602 0.10839844 -0.012023926 -0.14746094 0.31640625 0.023803711 -0.14453125 0.453125 -0.017700195 0.16210938 -0.030273438 -0.0061950684 -0.20117188 -0.1796875 -0.087402344 0.359375 0.010559082 0.25585938 0.19824219 0.41796875 -0.048583984 -0.16992188 0.030883789 -0.0039978027 0.18066406 -0.11669922 -0.19824219 -0.37890625 0.03540039 0.104003906 -0.24316406 0.26757812 -0.171875 -0.31054688 -0.06298828 -0.18554688 0.2578125 -0.39648438 0.095214844 0.08154297 -0.22851562 0.08251953 0.20410156 0.22167969 -0.18066406 -0.16503906 0.13183594 0.13574219 -0.140625 -0.05908203 0.057861328 0.00024795532 -0.16210938 0.104003906 -0.18554688 -0.12890625 0.19824219
going 0.15136719 0.2421875 0.09326172 0.15625 -0.104003906 0.010620117 0.046142578 -0.10058594 0.13183594 0.13574219 -0.008850098 -0.060791016 -0.10107422 -0.15527344 -0.19042969 -0.048339844 0.09716797 0.087402344 0.15625 -0.09765625 -0.21777344 0.059814453 0.24609375 -0.057128906 0.055419922 -0.004272461 0.002090454 -0.08154297 -0.040771484 0.0049438477 0.043945312 0.060791016 0.08300781 -0.15722656 -0.052490234 0.0056762695 -0.036621094 -0.007385254 0.046875 0.048828125 0.11621094 -0.15429688 0.24511719 -0.09423828 -0.118652344 0.018066406 0.0859375 -0.12011719 -0.037841797 -0.05810547 -0.051513672 0.23632812 0.009521484 0.051513672 0.14160156 0.03881836 0.03515625 -0.011657715 0.23632812 -0.125 -0.02368164 0.0054016113 -0.08886719 -0.091796875 -0.0013427734 0.009460449 -0.021606445 0.26953125 -0.02319336 -0.12597656 -0.02722168 0.044433594 0.13183594 -0.0005340576 -0.2734375 -0.12158203 0.12109375 0.15917969 -0.057861328 0.076171875 0.028686523 -0.110839844 0.09082031 0.0625 -0.017456055 -0.12988281 -0.008605957 0.28710938 0.07861328 0.057373047 0.15527344 0.10253906 -0.0038452148 -0.11279297 -0.1484375 -0.17578125 0.22558594 0.10644531 -0.0119018555 -0.014953613 -0.265625 0.044433594 0.08203125 -0.0028686523 -0.06201172 -0.029663086 -0.103515625 -0.17285156 -0.030639648 -0.0031585693 0.0035247803 -0.16503906 -0.15625 -0.015625 0.021606445 0.036865234 0.11328125 -0.016113281 0.11425781 0.05029297 -0.15332031 0.083984375 0.05517578 0.14648438 -0.03173828 -0.035888672 -0.1796875 -0.06542969 -0.23730469 -0.10595703 -0.07373047 -0.15332031 -0.12988281 0.15039062 -0.056640625 -0.19824219 0.10546875 0.16113281 0.091308594 0.20605469 -0.044433594 -0.08203125 0.1796875 -0.016723633 0.06689453 0.16601562 -0.13183594 -0.31445312 -0.034423828 -0.15039062 -0.03491211 0.19824219 -0.12597656 0.122558594 0.02709961 0.099121094 0.03515625 -0.10498047 -0.1328125 0.16796875 0.013549805 0.096191406 0.11816406 0.171875 -0.02368164 -0.19921875 0.016235352 0.007598877 0.20703125 -0.13183594 -0.2421875 -0.035888672 0.047851562 -0.0859375 -0.061279297 0.04321289 0.15039062 -0.061523438 -0.029174805 0.19433594 -0.0025177002 -0.076171875 0.15820312 0.17285156 0.03881836 -0.10107422 -0.025268555 0.118652344 0.25585938 -0.080078125 0.22363281 0.22363281 0.11230469 0.046875 -0.050048828 0.032226562 -0.091308594 0.12158203 -0.03930664 -0.15136719 0.019042969 0.09814453 0.06933594 0.048095703 0.030273438 0.23632812 -0.08154297 -0.1328125 0.11816406 -0.008117676 0.012145996 0.27539062 -0.02368164 0.042236328 -0.057128906 -0.011779785 0.203125 0.032470703 -0.091796875 0.028320312 -0.0859375 0.033447266 -0.040527344 -0.00031661987 0.13183594 -0.12060547 0.27539062 -0.016723633 -0.061279297 0.0087890625 -0.084472656 -0.100097656 0.01586914 0.1015625 -0.037597656 -0.008239746 -0.10205078 -0.12988281 0.22753906 0.06640625 0.16113281 0.10498047 -0.07910156 -0.125 -0.076660156 -0.083984375 -0.10449219 0.057373047 0.17675781 -0.045654297 0.014099121 0.0025634766 0.22167969 0.018920898 0.17285156 -0.07324219 0.030639648 -0.0390625 -0.12207031 -0.20703125 -0.1953125 0.025878906 0.09326172 0.052978516 0.024047852 0.025634766 0.1875 -0.04296875 -0.056884766 0.15136719 -0.0071105957 0.19042969 0.25976562 0.22558594 0.03466797 -0.06201172 0.007598877 -0.0016098022 -0.09326172 0.041992188 -0.1484375 -0.23730469 -0.08300781 0.099121094 -0.057128906 -0.08496094 0.09765625 -0.080078125 0.22363281 0.053955078 -0.23925781 0.16308594 -0.24707031 0.09277344 0.016845703 0.03930664 0.063964844 -0.06201172 0.05517578 -0.16992188
profile 0.012756348 0.375 -0.29101562 0.06347656 0.018188477 -0.13671875 0.034423828 -0.048828125 0.20507812 -0.053222656 0.31640625 -0.12695312 0.19824219 0.02758789 -0.06738281 0.2734375 -0.22460938 0.032470703 0.099609375 -0.040283203 0.29492188 0.088378906 -0.18457031 0.29492188 -0.35742188 -0.080078125 -0.06298828 0.2734375 -0.00050735474 0.16796875 0.44726562 -0.0054626465 0.1875 -0.03881836 -0.064453125 -0.22558594 -0.036621094 0.140625 0.053710938 -0.09716797 0.18945312 0.17285156 -0.2890625 0.0010147095 0.1171875 -0.20800781 -0.05029297 -0.02355957 0.11669922 0.08300781 -0.018798828 -0.16503906 0.015380859 0.083496094 -0.06542969 -0.125 -0.026123047 0.00012874603 0.25976562 -0.0023345947 0.028808594 -0.038330078 -0.29492188 0.20996094 0.023803711 0.080078125 0.17578125 0.10888672 0.19433594 0.115722656 -0.0063476562 0.110839844 0.16699219 0.14648438 -0.16015625 0.16113281 0.15625 0.16601562 0.24707031 0.140625 0.057617188 0.11230469 -0.091796875 -0.05517578 0.0390625 -0.29492188 -0.15429688 -0.18457031 -0.19140625 -0.061523438 0.18457031 -0.22265625 -0.06738281 -0.115722656 0.041259766 -0.106933594 -0.123046875 -0.013183594 0.08496094 -0.05493164 0.08886719 0.033691406 0.052001953 -0.203125 -0.05419922 -0.014160156 -0.23144531 0.14746094 0.25390625 0.106933594 -0.18164062 0.04321289 0.00982666 -0.25 0.24414062 -0.21191406 -0.15136719 0.03930664 0.3359375 0.1640625 -0.265625 0.11035156 -0.16894531 0.3359375 0.33007812 -0.012817383 0.1796875 -0.13378906 0.28125 -0.0546875 0.12060547 0.08154297 -0.140625 0.033691406 0.030151367 -0.12988281 0.26757812 0.15234375 -0.096191406 0.07128906 0.15234375 0.055664062 0.0035247803 -0.02734375 0.25195312 0.25585938 0.18261719 -0.06982422 0.13867188 -0.12695312 0.03125 -0.15625 -0.115234375 -0.029907227 -0.25390625 -0.123535156 -0.05908203 -0.07519531 0.05102539 -0.14746094 -0.1953125 0.123535156 0.14257812 0.1640625 0.07373047 0.09033203 -0.14453125 -0.38085938 -0.39257812 0.17089844 -0.05517578 -0.07519531 0.06640625 -0.34375 0.06738281 -0.29101562 -0.20410156 -0.1875 0.060791016 0.11279297 0.14648438 0.032226562 -0.18359375 -0.018432617 0.031982422 -0.051757812 0.07519531 0.05029297 -0.013671875 0.059570312 0.04248047 0.0069885254 0.039794922 -0.1328125 -0.040527344 0.21484375 -0.026367188 0.25390625 0.0068359375 -0.12695312 0.14453125 0.20605469 -0.032714844 -0.09814453 0.20703125 -0.14746094 -0.35546875 -0.11425781 -0.012268066 0.022949219 -0.28125 0.13574219 0.17480469 0.265625 -0.083984375 -0.06738281 -0.14257812 0.103515625 0.012023926 0.17285156 0.08984375 0.087890625 -0.25390625 0.05859375 0.068847656 -0.008422852 0.013183594 0.076660156 0.14648438 -0.061523438 -0.31054688 -0.052001953 0.0033111572 0.37695312 0.06347656 -0.088378906 -0.18066406 0.13769531 0.15234375 -0.17285156 -0.41796875 -0.029052734 0.12988281 0.083496094 0.003967285 0.014587402 0.119628906 0.25390625 -0.048339844 -0.12695312 -0.09033203 0.07324219 -0.022583008 -0.014709473 0.025756836 0.25 0.20507812 0.21484375 -0.09082031 -0.0073547363 0.21484375 -0.01953125 -0.024780273 0.04321289 0.09765625 0.30664062 -0.12207031 -0.13671875 0.21191406 -0.25 -0.107910156 0.22460938 0.18847656 -0.111816406 -0.3203125 -0.15722656 0.18652344 -0.22070312 -0.04736328 -0.057373047 -0.08105469 -0.05419922 -0.10449219 0.019897461 -0.38867188 0.17578125 -0.11669922 0.041748047 0.09277344 -0.060302734 -0.049072266 0.0024261475 -0.1640625 -0.05053711 0.041503906 0.08886719 0.5234375 -0.25195312 -0.21972656 0.032714844
has -0.044921875 -0.030395508 0.0023498535 -0.006591797 0.087890625 0.032958984 -0.09423828 -0.24121094 -0.057373047 0.2265625 -0.19140625 -0.16894531 0.08203125 -0.063964844 0.14648438 0.10058594 0.13671875 0.06689453 -0.17480469 0.011108398 -0.03515625 0.265625 0.15527344 -0.19628906 -0.05126953 -0.061767578 -0.083984375 0.01574707 0.043945312 0.04345703 0.1484375 0.13183594 -0.09765625 0.21875 0.30273438 -0.07080078 -0.08886719 -0.1796875 0.0031585693 -0.030151367 0.12988281 0.16113281 -0.14355469 0.00078201294 0.04248047 0.0069885254 -0.032958984 0.07373047 0.28320312 -0.13574219 -0.010498047 -0.15527344 -0.031982422 -0.02746582 -0.03857422 0.20410156 -0.049316406 -0.15234375 0.011474609 -0.14453125 -0.0034179688 0.296875 -0.029785156 -0.092285156 -0.030273438 -0.021484375 0.08984375 -0.06542969 -0.07324219 0.059326172 0.033447266 0.025512695 -0.016357422 0.24023438 0.067871094 0.09277344 0.17382812 0.23339844 -0.008239746 0.10888672 0.1328125 -0.044677734 0.056640625 0.008483887 0.02722168 -0.19726562 -0.28710938 0.05444336 -0.04345703 -0.036865234 -0.028808594 -0.041748047 0.0049438477 -0.14355469 -0.088378906 -0.08935547 -0.14746094 0.0039367676 0.053955078 0.027954102 0.1875 -0.103027344 -0.014343262 0.0546875 -0.171875 -0.011413574 -0.044677734 0.01361084 0.007080078 -0.15625 -0.140625 -0.10595703 -0.16210938 -0.13183594 0.053466797 -0.06591797 -0.171875 0.03930664 0.28125 0.018554688 -0.064453125 -0.0029907227 -0.24023438 0.111816406 -0.20605469 -0.091308594 0.17773438 -0.022460938 0.12207031 -0.013427734 0.005065918 0.026489258 -0.24707031 -0.20996094 -0.083496094 -0.018188477 0.16992188 0.06591797 -0.061279297 -0.10595703 0.057617188 0.037109375 0.099609375 0.114746094 -0.061035156 0.0546875 -0.14746094 -0.0138549805 -0.16113281 0.011474609 0.063964844 -0.10839844 -0.00010728836 -0.020996094 -0.021728516 0.15039062 0.07128906 -0.0703125 -0.0029144287 -0.12988281 0.1953125 0.0859375 0.10449219 0.19726562 -0.083496094 -0.041259766 -0.040527344 -0.2578125 0.003189087 -0.10986328 0.10253906 0.14160156 -0.12988281 -0.026855469 0.038085938 -0.13769531 -0.13085938 -0.1640625 0.13476562 -0.15722656 -0.00026130676 -0.096191406 0.17089844 0.0012435913 0.1640625 -0.14257812 0.0023345947 -0.044189453 0.09326172 0.084472656 0.052490234 0.19726562 -0.061767578 0.05517578 0.010131836 -0.02746582 -0.11816406 0.06640625 0.07373047 -0.11376953 -0.020751953 0.0008468628 0.039794922 0.0071105957 -0.012634277 -0.076171875 -0.04345703 0.032714844 0.08642578 0.044921875 -0.001335144 -0.12402344 0.002746582 0.15136719 -0.07470703 0.18261719 0.19238281 -0.029663086 -0.0056762695 0.171875 -0.025756836 0.14746094 0.091308594 0.051513672 0.1015625 -0.010559082 0.018920898 0.0034332275 0.049804688 -0.025146484 -0.122558594 -0.1875 0.07861328 0.07373047 -0.028076172 -0.076171875 -0.03466797 -0.17382812 0.037841797 -0.09423828 -0.15820312 -0.03564453 0.28320312 -0.10888672 0.125 0.084472656 0.12451172 -0.024414062 0.11621094 -0.007446289 -0.060546875 -0.140625 -0.00044250488 0.010620117 0.02758789 0.11035156 0.024536133 0.1796875 -0.118652344 -0.024658203 0.14355469 -0.015014648 0.068847656 0.11279297 0.20019531 0.33203125 -0.13574219 -0.011352539 0.14648438 0.0043029785 0.079589844 0.15136719 0.07128906 -0.10449219 -0.17285156 0.061035156 -0.036621094 -0.15039062 0.026611328 -0.33398438 -0.072753906 0.095703125 0.041503906 0.10644531 0.25585938 0.008850098 -0.052490234 -0.008422852 0.15527344 0.071777344 -0.2890625 -0.05859375 -0.10986328 0.19042969 0.06982422 0.018310547 0.02758789 0.012268066 -0.088378906 -0.015625
much 0.16894531 0.063964844 -0.084472656 0.17382812 -0.07519531 0.08935547 0.23828125 -0.19335938 0.078125 0.008972168 -0.0040893555 -0.15722656 0.10253906 0.032714844 -0.056884766 0.0234375 0.02368164 0.23925781 0.08105469 0.011047363 -0.17773438 0.10107422 0.072753906 -0.012939453 0.10107422 0.037841797 -0.13476562 0.014221191 -0.014282227 -0.052490234 -0.040283203 0.15527344 -0.072265625 -0.06982422 -0.011779785 -0.018432617 -0.0062561035 0.118652344 0.10449219 0.2578125 0.14355469 -0.18261719 0.15332031 -0.052246094 -0.037597656 -0.080078125 -0.19921875 0.20800781 0.05810547 -0.106933594 0.23730469 0.008117676 -0.06591797 -0.08251953 0.037841797 0.114746094 -0.079589844 0.00046730042 0.1171875 -0.20605469 0.03515625 0.11376953 -0.18457031 -0.049804688 0.02368164 -0.061767578 0.06225586 -0.07910156 -0.09814453 -0.063964844 0.091308594 0.05419922 0.16210938 -0.08300781 -0.24609375 -0.05078125 0.1328125 0.14941406 0.07324219 -0.06542969 -0.20703125 0.07373047 0.0011672974 0.119628906 -0.32226562 -0.088378906 -0.068359375 0.20507812 0.072265625 0.07470703 0.23046875 0.1328125 -0.15527344 -0.052490234 0.04248047 -0.0023040771 -0.021240234 0.075683594 -0.07470703 -0.095214844 -0.048339844 -0.008972168 0.0012893677 -0.06591797 -0.119628906 -0.076660156 -0.12695312 -0.055664062 0.039794922 -0.24023438 0.21679688 -0.053955078 0.15820312 -0.03125 0.16796875 0.068359375 0.3515625 -0.09716797 0.01965332 0.06640625 -0.06347656 0.078125 -0.09765625 0.048583984 -0.16113281 0.09423828 -0.041015625 0.12695312 -0.03173828 -0.021240234 0.060791016 -0.08203125 -0.029541016 -0.06298828 -0.05419922 -0.1015625 0.19140625 0.08203125 0.020874023 -0.14257812 -0.04296875 -0.05053711 0.020019531 -0.20019531 0.04345703 -0.14160156 -0.12792969 -0.034423828 -0.13378906 -0.03125 -0.037597656 -0.024169922 -0.14453125 0.061279297 -0.032226562 0.049804688 0.029052734 -0.008361816 -0.15820312 -0.009887695 0.203125 0.35546875 0.07910156 0.05053711 0.057128906 -0.11669922 -0.015258789 0.059326172 0.13769531 -0.028808594 -0.15527344 0.045898438 -0.04711914 -0.12988281 -0.080078125 0.23730469 -0.0119018555 -0.27148438 0.022216797 -0.06542969 0.02746582 -0.08251953 -0.083984375 -0.12011719 0.08886719 -0.03125 0.031982422 -0.071777344 -0.076171875 0.075683594 0.2265625 -0.084472656 0.056884766 -0.064453125 0.001335144 -0.14355469 -0.23925781 -0.028808594 0.072753906 -0.13671875 -0.048339844 0.010559082 -0.080078125 0.20214844 0.044189453 0.06347656 -0.13867188 -0.099609375 -0.05029297 -0.036132812 -0.14160156 0.091796875 0.020019531 -0.033935547 -0.19628906 -0.10107422 0.22265625 0.012451172 0.0008506775 -0.030151367 0.030151367 -0.096191406 0.018676758 -0.080566406 0.017944336 -0.11767578 0.09814453 0.07763672 0.107421875 0.11669922 -0.045898438 -0.07324219 0.26171875 -0.12109375 0.010864258 -0.019897461 -0.28125 -0.34765625 0.103515625 -0.16699219 0.026977539 -0.14257812 0.15722656 -0.25976562 0.016967773 -0.05810547 0.051513672 -0.114746094 -0.13964844 0.1015625 0.032958984 0.17773438 0.106933594 0.0029754639 0.0099487305 -0.018188477 0.05883789 0.17773438 -0.12451172 -0.072265625 0.104003906 -0.076171875 -0.083984375 -0.17871094 -0.064453125 0.110839844 -0.020385742 -0.13183594 0.055908203 0.072753906 0.01159668 0.05444336 0.08642578 0.11279297 0.0068969727 0.005340576 -0.087890625 -0.023071289 -0.11376953 -0.12695312 0.14941406 0.01184082 -0.043945312 0.046142578 -0.038085938 0.0024414062 0.032958984 0.04663086 0.10205078 0.040039062 -0.34375 -0.021728516 -0.06640625 0.055419922 -0.10205078 -0.021728516 0.14941406 -0.171875 -0.029296875 -0.20605469
trend 0.061767578 -0.028442383 -0.24804688 0.22070312 -0.16015625 -0.12060547 -0.18457031 -0.125 -0.25390625 0.080078125 -0.34960938 -0.11816406 0.25195312 0.14648438 -0.36914062 0.115234375 0.03149414 -0.16699219 0.028320312 -0.3828125 0.095703125 0.2265625 0.107910156 0.010070801 -0.11425781 0.032226562 -0.018066406 0.030761719 0.014770508 0.19824219 -0.008361816 -0.15527344 0.25195312 -0.3828125 -0.055908203 0.12109375 -0.01586914 -0.025024414 0.29101562 -0.1015625 0.24414062 0.15527344 -0.13378906 -0.011474609 -0.10058594 -0.08154297 0.030639648 -0.021484375 -0.010925293 -0.061279297 0.31054688 -0.08203125 -0.11279297 0.040283203 0.2734375 -0.027832031 0.25195312 0.17675781 0.10205078 -0.21386719 -0.17871094 0.25 -0.043701172 0.025024414 -0.15917969 0.16503906 -0.15136719 0.32226562 0.012329102 0.09814453 -0.22363281 0.12792969 0.07421875 0.05078125 -0.25976562 -0.032958984 -0.0074157715 0.19238281 0.10595703 0.15332031 0.16894531 -0.36132812 0.06738281 -0.16992188 -0.09472656 0.15039062 -0.16796875 -0.05834961 0.13769531 0.021850586 0.14550781 0.12402344 -0.12695312 0.26171875 -0.050048828 0.203125 0.20019531 0.13964844 0.05810547 -0.20703125 0.08496094 -0.049560547 -0.114746094 0.087402344 0.16601562 -0.30859375 -0.123535156 0.10546875 -0.12402344 0.07910156 0.111816406 -0.06982422 -0.1796875 0.100097656 0.21875 -0.125 0.15136719 -0.056152344 0.16992188 0.28710938 0.1640625 -0.047607422 0.0390625 0.22753906 0.13183594 0.27929688 -0.096191406 0.21289062 -0.14550781 0.15039062 0.18457031 -0.20117188 0.17285156 0.10888672 0.18457031 -0.006866455 0.07763672 0.20703125 -0.01586914 0.20898438 0.09863281 -0.32617188 0.09277344 0.25 0.12207031 -0.046142578 0.3203125 -0.07470703 0.10107422 -0.19433594 0.014465332 -0.002380371 -0.0703125 0.23535156 -0.37695312 0.028198242 -0.28125 -0.13085938 0.042236328 -0.30078125 -0.10449219 0.10107422 -0.09326172 -0.31445312 -0.11816406 0.080078125 0.18847656 0.044433594 0.26953125 -0.046875 -0.096191406 0.009338379 -0.11279297 0.045166016 -0.20019531 0.18554688 0.26171875 -0.21386719 0.16601562 0.110839844 -0.2890625 -0.33203125 0.029296875 -0.21972656 0.19238281 -0.00793457 -0.14941406 0.36523438 0.061279297 0.06982422 0.07519531 -0.07910156 -0.021240234 0.0012359619 -0.54296875 0.17382812 0.005065918 0.51171875 0.06542969 -0.006652832 -0.016357422 0.14746094 -0.22460938 -0.049560547 -0.18457031 0.0023345947 0.30273438 -0.25 0.033691406 0.22558594 0.07763672 0.009460449 0.051513672 0.032714844 -0.18457031 0.31445312 0.08886719 0.12597656 0.04248047 0.21386719 0.14550781 0.171875 -0.06347656 0.22460938 -0.19628906 -0.21289062 -0.053466797 -0.390625 0.12060547 0.40039062 0.045654297 0.07080078 -0.008483887 0.12207031 -0.1484375 0.19628906 -0.328125 0.24707031 0.110839844 0.27539062 0.18652344 -0.15136719 0.23242188 -0.045654297 0.05517578 0.36914062 0.09326172 0.23144531 0.115722656 -0.3515625 -0.022216797 0.107421875 -0.09814453 -0.09375 0.06689453 -0.00592041 0.09423828 0.234375 -0.20019531 -0.07763672 0.15527344 -0.05493164 0.078125 0.104003906 0.21191406 0.20996094 -0.40820312 0.125 0.06542969 -0.09423828 0.022827148 0.13671875 -0.14648438 0.16015625 -0.04638672 0.0012588501 -0.083984375 0.013793945 0.12402344 0.07861328 -0.056884766 0.060791016 0.18359375 -0.20605469 -0.042236328 -0.20800781 0.10253906 -0.06689453 0.100097656 0.1015625 -0.029785156 -0.057373047 0.20019531 -0.20019531 0.046875 -0.24902344 0.31640625 0.13378906 0.12597656 0.016967773
airports 0.13964844 0.03125 0.21191406 0.34765625 0.0546875 -0.32226562 -0.41601562 0.34570312 0.25195312 -0.15820312 0.37890625 -0.18457031 0.13183594 -0.19628906 -0.0023498535 0.031982422 0.049072266 0.25195312 -0.0859375 -0.061035156 -0.0020141602 -0.2109375 0.16796875 -0.123046875 0.012756348 0.13183594 -0.19824219 -0.18945312 0.036621094 -0.09033203 -0.044189453 -0.13085938 -0.05102539 0.13769531 0.037597656 -0.32617188 -0.34960938 0.19042969 -0.100097656 0.453125 0.111816406 0.111816406 0.20605469 -0.0011672974 0.033203125 -0.53125 0.037353516 0.15136719 0.046875 0.030273438 -0.032958984 0.1328125 -0.00041389465 0.21289062 -0.28125 -0.390625 -0.22167969 0.15332031 -0.1796875 -0.25976562 -0.22167969 -0.13671875 -0.10839844 -0.17285156 0.171875 0.10107422 -0.40234375 0.29296875 0.01953125 -0.19335938 -0.35742188 -0.023925781 0.13964844 0.29101562 -0.38867188 -0.37890625 -0.18554688 0.15625 0.234375 -0.043701172 -0.29296875 0.119628906 0.03955078 -0.14355469 -0.20996094 0.12695312 -0.055908203 0.2734375 0.060791016 -0.072265625 0.19628906 -0.21679688 -0.31835938 0.14257812 0.111816406 -0.14160156 0.25585938 -0.59375 0.016967773 -0.15136719 0.15625 0.122558594 0.057128906 0.15917969 0.39257812 -0.01586914 -0.036376953 0.25585938 0.25 0.021362305 -0.08105469 0.040039062 0.009765625 -0.265625 -0.34960938 0.19726562 -0.06738281 -0.045166016 0.17578125 -0.10253906 -0.26953125 -0.041015625 -0.30664062 -0.30273438 -0.08642578 -0.114746094 -0.21191406 -0.02734375 0.17480469 -0.05029297 0.16601562 -0.0011444092 0.20605469 -0.1015625 0.08496094 -0.38867188 0.19042969 -0.10058594 0.083984375 -0.07421875 -0.104003906 -0.29101562 -0.029418945 -0.0037231445 0.13964844 -0.0067443848 -0.14941406 -0.22851562 -0.099121094 -0.32226562 -0.13476562 0.05444336 0.20019531 -0.17089844 -0.20703125 -0.061767578 0.203125 -0.40820312 0.0056762695 0.19628906 -0.15234375 0.10595703 0.23828125 0.018920898 -0.11621094 0.26953125 -0.25976562 -0.38671875 0.296875 -0.052978516 0.053955078 0.28710938 0.091796875 0.140625 -0.123535156 0.00023555756 -0.022583008 -0.62890625 -0.2265625 0.15234375 -0.17578125 0.09326172 -0.25195312 -0.11376953 0.063964844 0.09423828 -0.10644531 0.1328125 0.06738281 0.23339844 -0.08105469 0.06225586 -0.0546875 -0.12402344 -0.13964844 0.34570312 -0.025024414 -0.203125 -0.22265625 -0.17089844 -0.20019531 0.080078125 0.21679688 0.1484375 0.034423828 0.18457031 0.16699219 0.052978516 0.18652344 0.10888672 0.24902344 0.030273438 -0.078125 0.27539062 -0.42578125 0.2890625 0.07324219 0.48242188 -0.008056641 0.17578125 0.056396484 -0.24609375 -0.16308594 0.15527344 -0.028808594 0.11816406 -0.39648438 0.15039062 0.050048828 -0.12890625 0.15429688 0.14160156 -0.41015625 0.27929688 0.31054688 0.2421875 0.31054688 -0.040527344 0.25390625 -0.110839844 -0.16699219 -0.029296875 -0.14550781 -0.068359375 0.083496094 -0.24609375 -0.08886719 -0.20507812 -0.33398438 0.13476562 -0.041503906 -0.048095703 0.07128906 0.20117188 -0.13085938 -0.29296875 0.27148438 0.22460938 -0.076171875 0.080566406 0.14453125 0.359375 0.060302734 0.08105469 0.0029296875 0.026245117 -0.12109375 -0.32226562 -0.44140625 0.053222656 0.072265625 0.3515625 -0.20703125 -0.053710938 0.13378906 -0.095703125 0.046142578 0.19140625 0.032470703 -0.13085938 -0.15039062 0.4296875 0.12011719 -0.13574219 -0.06201172 0.103515625 -0.3046875 -0.13183594 -0.265625 0.16210938 -0.08154297 -0.37109375 0.10546875 0.18359375 0.22167969 0.025878906 -0.2578125 0.10498047 0.16699219 -0.13183594
brazilian -0.2890625 -0.22167969 0.17285156 0.075683594 0.13183594 -0.11621094 -0.029663086 -0.16992188 -0.1796875 -0.03125 0.014343262 -0.39257812 -0.21386719 0.03930664 0.07373047 0.38671875 0.00982666 0.2265625 -0.038330078 0.20507812 -0.032958984 0.0138549805 -0.05053711 0.17382812 -0.23730469 0.18554688 -0.002746582 0.04638672 -0.091308594 0.21972656 0.16113281 0.09375 -0.015563965 -0.17285156 -0.03173828 0.048583984 -0.22167969 -0.03125 0.064941406 -0.055419922 0.026733398 -0.045166016 0.24609375 0.4609375 0.41210938 0.03173828 0.06298828 -0.32421875 0.10205078 0.13378906 0.046142578 0.20703125 -0.020751953 -0.095703125 -0.12792969 0.28515625 -0.08984375 -0.047607422 -0.14941406 -0.12890625 -0.053710938 0.14453125 -0.19824219 0.059326172 0.09423828 -0.060302734 0.083496094 -0.44726562 -0.13476562 0.04638672 -0.05493164 0.20703125 -0.19433594 0.18359375 -0.33789062 0.080566406 0.12011719 -0.047851562 -0.13574219 0.02722168 -0.15136719 0.013244629 -0.038330078 -0.014160156 0.119140625 0.080566406 0.06591797 0.33007812 0.13085938 0.037353516 -0.28710938 0.14648438 -0.3046875 0.1875 -0.10253906 0.067871094 -0.13085938 -0.265625 0.6796875 0.013793945 -0.076171875 0.14160156 -0.064453125 0.18359375 0.06591797 0.10449219 0.13964844 -0.24316406 -0.064453125 -0.03149414 -0.19921875 -0.22851562 -0.017578125 0.0018539429 -0.359375 0.265625 -0.23046875 -0.30664062 -0.107421875 0.16015625 0.056396484 -0.22363281 -0.09082031 0.11425781 0.35742188 -0.03540039 -0.16210938 -0.115722656 0.072753906 -0.020874023 -0.27148438 -0.14941406 0.16699219 -0.16308594 -0.18066406 -0.14648438 -0.43945312 -0.125 0.22363281 0.10986328 0.2578125 -0.35351562 -0.21582031 -0.08203125 0.041259766 0.17675781 0.15136719 0.25 -0.07519531 -0.25976562 0.19628906 0.00018596649 -0.17089844 0.2265625 -0.010192871 0.15332031 -0.27929688 0.24902344 -0.18359375 -0.10205078 0.265625 0.15136719 -0.11425781 -0.11621094 0.15917969 -0.22070312 -0.16601562 -0.063964844 -0.19042969 -0.056152344 -0.5234375 -0.08544922 0.10253906 0.06982422 -0.10595703 0.05883789 0.25585938 -0.5234375 0.17773438 0.022949219 0.050048828 -0.1484375 -0.26953125 0.11230469 -0.07128906 0.16113281 -0.029174805 -0.21582031 0.10888672 0.10839844 0.19433594 -0.13378906 -0.171875 -0.20410156 0.49609375 0.046875 -0.038330078 0.030639648 -0.27929688 -0.203125 -0.009216309 0.18359375 -0.015625 -0.3046875 -0.022705078 -0.21777344 0.04321289 -0.13671875 -0.5078125 0.20800781 -0.087402344 0.10058594 -0.026611328 0.14648438 -0.123535156 -0.21386719 0.35546875 -0.19335938 -0.21972656 -0.1484375 -0.27734375 -0.1328125 0.060791016 0.068359375 0.018310547 0.023925781 0.055908203 -0.03149414 0.35351562 0.03515625 0.10839844 -0.0859375 -0.020141602 0.17871094 0.05078125 0.083984375 0.3828125 0.27148438 -0.15136719 0.12988281 -0.01965332 0.109375 -0.36523438 0.123046875 -0.06298828 -0.103027344 0.026000977 0.022949219 -0.25 -0.099609375 0.15136719 0.021118164 0.096191406 0.08544922 0.33007812 -0.16015625 -0.19824219 0.07861328 0.083984375 -0.0390625 0.24414062 -0.08691406 0.13867188 -0.21777344 0.13476562 -0.11425781 -0.14746094 0.03466797 0.23535156 -0.11279297 -0.36523438 -0.09716797 -0.026367188 -0.083984375 0.010314941 0.060058594 -0.328125 0.0058288574 -0.19921875 0.35546875 -0.13476562 0.020629883 -0.03125 0.025634766 0.1015625 -0.016967773 -0.18359375 0.07861328 -0.1328125 0.13867188 0.053466797 0.34960938 0.05029297 -0.025756836 0.0030212402 0.15332031 -0.01159668 -0.08984375 -0.16601562 0.18652344
its 0.01159668 0.21679688 0.14746094 0.10107422 -0.048583984 -0.13085938 0.055419922 -0.026000977 -0.08496094 -0.04345703 -0.17871094 -0.024536133 0.12890625 0.033447266 -0.22460938 -0.072265625 0.061279297 -0.0012817383 0.20605469 0.0146484375 -0.06298828 0.020629883 -0.13964844 -0.043945312 0.056396484 -0.044677734 0.017456055 0.13671875 0.099121094 -0.11767578 0.18457031 -0.10644531 -0.23339844 -0.018920898 0.08642578 -0.023071289 -0.11035156 -0.084472656 0.18652344 -0.022949219 0.026000977 -0.052978516 0.056884766 0.15722656 0.032470703 0.001121521 -0.125 0.15820312 0.13769531 0.14746094 0.31054688 0.07128906 0.057373047 0.052978516 -0.028930664 0.08496094 -0.1796875 -0.1640625 0.20800781 0.15722656 0.0015716553 0.20800781 0.018066406 -0.06225586 -0.007598877 -0.106933594 0.16503906 0.030883789 -0.07470703 0.18261719 0.037597656 0.016235352 0.02319336 -0.0054016113 0.12792969 -0.044921875 0.16894531 -0.005279541 0.15527344 0.10107422 -0.08496094 -0.42773438 -0.041748047 0.050048828 -0.19238281 0.008911133 -0.12451172 -0.008544922 -0.12695312 0.13769531 -0.06298828 -0.10644531 0.099609375 -0.03930664 -0.044921875 0.12890625 -0.18457031 -0.091796875 0.056152344 0.18261719 0.140625 -0.008361816 -0.10595703 0.051513672 -0.049316406 -0.11279297 0.004638672 0.17578125 -0.10546875 -0.29101562 -0.19921875 -0.059570312 -0.1171875 0.0046691895 0.013061523 0.14941406 -0.11035156 0.10986328 0.19824219 -0.08154297 -0.071777344 -0.13378906 -0.09033203 0.088378906 -0.06347656 0.0859375 -0.075683594 -0.13183594 -0.017822266 -0.02734375 -0.036132812 0.1015625 -0.045654297 -0.053466797 0.024902344 0.028808594 0.0079956055 -0.067871094 -0.12695312 -0.044189453 0.15234375 -0.1484375 -0.010925293 0.040039062 0.09716797 -0.080078125 0.03564453 0.06933594 -0.046142578 0.19042969 -0.034179688 -0.13378906 -0.014526367 -0.1171875 -0.15625 -0.13574219 0.03564453 0.12597656 -5.7935715e-05 0.040771484 0.07421875 -0.0011978149 0.056640625 0.057373047 0.0035552979 -0.045410156 0.05419922 -0.109375 0.05810547 -0.16210938 -0.06298828 -0.10839844 -0.08251953 -0.059570312 0.05444336 -0.1171875 0.072265625 -0.0859375 -0.0077209473 -0.14550781 -0.1328125 0.050048828 -0.080078125 -0.203125 -0.1484375 0.008605957 -0.0099487305 -0.008422852 0.16113281 -0.018676758 -0.08105469 -0.028686523 -0.087402344 0.013549805 -0.30078125 -0.0859375 -0.15722656 0.012268066 0.14453125 -0.22949219 -0.092285156 -0.099121094 0.09863281 0.09033203 0.07080078 0.14550781 0.021728516 0.08691406 -0.010009766 0.024169922 0.043945312 0.12011719 -0.07373047 0.21386719 -0.06689453 0.08105469 0.17773438 -0.025268555 -0.21777344 0.19042969 0.0025787354 0.203125 0.040771484 0.052978516 0.063964844 -0.11669922 -0.24511719 0.06982422 0.19726562 0.0119018555 -0.118652344 -0.16796875 0.12402344 0.12597656 -0.022216797 0.048095703 -0.036621094 -0.076171875 -0.046875 -0.030029297 -0.022583008 -0.23730469 -0.0029907227 -0.10546875 0.080566406 -0.18066406 0.05883789 0.036865234 -0.09716797 0.1328125 -0.049804688 -0.13085938 -0.17675781 -0.16015625 -0.017944336 -0.040771484 0.20800781 -0.107421875 -0.029418945 0.22460938 0.10546875 0.026977539 -0.079589844 0.14160156 0.19921875 0.15917969 -0.099121094 -0.014282227 -0.048339844 -0.076660156 -0.0073242188 0.13378906 0.022460938 -0.12792969 0.0031280518 -0.15429688 -0.083984375 -0.12060547 -0.10205078 -0.045166016 -0.15332031 0.018798828 0.079589844 0.14550781 0.04248047 0.055664062 -0.0115356445 0.09814453 0.0037384033 -0.1015625 0.0009536743 0.032226562 -0.20996094 0.03466797 -0.109375 -0.092285156 0.110839844 0.14355469 0.0019683838 0.0025482178
performance -0.0107421875 0.08886719 0.05053711 -0.080566406 0.107910156 0.0703125 0.021728516 -0.34375 0.26171875 0.37304688 -0.071777344 -0.049560547 0.071777344 -0.020141602 0.14550781 0.23144531 0.0154418945 0.104003906 0.076171875 -0.20800781 0.0703125 0.022705078 -0.234375 0.24316406 0.091796875 -0.06640625 -0.053222656 -0.080078125 -0.15234375 0.1875 0.0021209717 -0.06591797 0.029174805 -0.076660156 0.087402344 0.10644531 -0.017700195 0.13867188 0.07763672 -0.037841797 0.07519531 0.16015625 0.04345703 0.20898438 0.17578125 0.018554688 -0.17285156 -0.041748047 0.071777344 0.119628906 0.13769531 0.34765625 -0.16992188 0.25976562 0.1328125 -0.08154297 0.026000977 -0.03881836 0.13574219 0.12597656 0.14550781 0.17871094 -0.22460938 -0.28515625 0.03881836 0.053710938 0.025390625 0.14941406 0.23242188 0.068847656 0.040283203 -0.35742188 0.20117188 -0.114746094 0.024902344 -0.08544922 0.19921875 -0.15820312 0.13769531 0.017456055 0.17675781 0.024780273 0.016357422 0.088378906 0.25976562 -0.015625 -0.09667969 -0.05834961 -0.095703125 0.056884766 -0.020019531 0.032958984 -0.032470703 0.13769531 0.07470703 -0.19921875 -0.083496094 0.15429688 -0.11328125 -0.13769531 0.07128906 -0.009643555 0.0625 -0.072265625 -0.16308594 -0.034179688 -0.067871094 0.05908203 -0.06640625 0.09277344 0.008300781 0.08691406 0.028564453 0.036865234 0.006500244 -0.27148438 -0.025878906 -0.2890625 0.13574219 -0.04711914 -0.16601562 0.123535156 0.080078125 -0.25 0.20800781 0.15527344 -0.14453125 0.12695312 0.020385742 -0.041992188 -0.22753906 0.109375 -0.03881836 -0.06347656 0.028686523 -0.0859375 0.29492188 -0.18847656 -0.24023438 0.15234375 0.018554688 -0.19433594 -0.059814453 0.17578125 0.043701172 -0.19238281 0.22363281 0.084472656 0.14550781 0.39257812 -0.111816406 0.15332031 -0.08984375 0.1484375 -0.2890625 -0.10058594 0.0546875 -0.040527344 0.091796875 -0.35742188 -0.15917969 0.013000488 0.13671875 0.37695312 -0.23242188 -0.038330078 -0.0020446777 -0.20410156 -0.049560547 0.048828125 -0.31445312 -0.18847656 0.15136719 -0.33984375 -0.064453125 0.0703125 0.18261719 -0.091796875 -0.018798828 0.115234375 0.037353516 0.09033203 0.21484375 0.08105469 0.0008735657 -0.14257812 -0.13964844 -0.0703125 -0.06689453 0.026855469 -0.07910156 -0.22949219 0.068847656 -0.13183594 -0.15917969 0.056152344 0.328125 -0.038085938 -0.040039062 -0.09423828 -0.03515625 0.21191406 0.010498047 0.123535156 0.23535156 -0.115722656 -0.11376953 0.21484375 -0.01159668 0.038085938 0.103027344 0.099121094 0.091796875 -0.041748047 -0.22265625 -0.05444336 0.1953125 0.03466797 -0.203125 -0.06640625 -0.17382812 -0.024414062 -0.10888672 0.0072021484 -0.034179688 0.009094238 -0.16308594 -0.09375 0.20019531 0.060302734 0.04663086 0.07861328 -0.024902344 0.025390625 -0.13378906 0.08691406 0.0058898926 -0.06689453 0.11279297 -0.06298828 0.09814453 -0.03540039 -0.0058288574 -0.25585938 -0.018920898 -0.19726562 -0.115234375 -0.19335938 -0.10498047 0.016479492 -0.052734375 0.05029297 0.025512695 0.08251953 -0.13183594 -0.015319824 0.15722656 0.11230469 -0.0119018555 0.12060547 0.20898438 0.20117188 -0.03857422 0.08886719 0.041503906 0.091308594 -0.006011963 -0.11621094 -0.16796875 -0.060791016 0.047851562 -0.13476562 0.05493164 0.006591797 -0.055908203 0.07861328 -0.055419922 -0.048828125 -0.21582031 0.04272461 0.15722656 0.09863281 0.05126953 0.0008735657 -0.15527344 -0.05859375 0.16699219 -0.14746094 0.10205078 0.060058594 -0.07714844 0.30078125 -0.15820312 -0.048583984 -0.06347656 0.16894531 0.23242188 0.08496094 -0.026733398 -0.115722656
others 0.14453125 0.06640625 0.029907227 0.19238281 -0.015197754 0.045410156 -0.051757812 0.07080078 -0.09814453 0.00064849854 -0.033935547 -0.08154297 -0.087890625 0.07470703 -0.18164062 -0.040039062 0.08544922 0.00074005127 -0.064453125 0.18652344 0.0008506775 0.030273438 -0.05810547 -0.031982422 0.08154297 -0.1875 -0.23046875 -0.1015625 -0.055419922 -0.12597656 -0.015075684 0.057128906 -0.13476562 0.043701172 0.057373047 0.056152344 0.114746094 -0.053955078 -0.025024414 0.016967773 0.15429688 0.048828125 0.04345703 -0.08886719 0.033935547 0.04663086 -0.123046875 0.0087890625 0.0859375 -0.119628906 0.024169922 0.087890625 0.07421875 0.10595703 0.079589844 0.11621094 -0.064941406 0.005340576 -0.036865234 0.02355957 0.19238281 0.17285156 -0.16503906 -0.024291992 0.029541016 0.04345703 0.06298828 0.08105469 -0.0005531311 0.013061523 -0.06640625 0.078125 0.18359375 0.0041503906 -0.095214844 -0.22167969 -0.09423828 0.023925781 0.011352539 0.053710938 -0.032470703 0.080078125 -0.07324219 -0.08984375 -0.09375 -0.06201172 -0.005279541 0.09277344 -0.11669922 -0.075683594 0.1328125 0.05493164 0.011291504 -0.05078125 0.203125 -0.0390625 0.104003906 0.023925781 0.06201172 -0.17480469 -0.05493164 -0.123046875 0.110839844 0.0061035156 -0.06738281 0.09082031 0.0046691895 0.024047852 0.3515625 -0.021362305 -0.17382812 0.16308594 -0.021118164 -0.068359375 0.0020599365 -0.043945312 0.08251953 -0.10986328 0.063964844 0.09814453 -0.18457031 0.18945312 -0.12792969 -0.038085938 -0.045166016 -0.12207031 0.091796875 0.017456055 -0.012084961 0.22363281 -0.171875 -0.09277344 -0.088378906 -0.08496094 -0.018920898 -0.06542969 0.037597656 -0.12792969 0.10986328 -0.0040893555 0.0859375 -0.07714844 0.04345703 -0.08105469 0.25195312 0.057617188 -0.03149414 -0.08935547 -0.016845703 -0.063964844 0.034423828 0.05053711 -0.13671875 0.06298828 0.056396484 -0.029663086 -0.06347656 -0.1484375 -0.11230469 0.07128906 0.08251953 0.10595703 -0.12060547 0.18945312 -0.09326172 -0.0050964355 0.16015625 0.20507812 -0.0115356445 -0.012329102 -0.060302734 0.05883789 -0.095214844 -0.09423828 0.001953125 0.0018920898 0.013061523 -0.08203125 -0.025878906 -0.09423828 -0.009155273 0.048828125 -0.018432617 -0.0014648438 0.09423828 0.011474609 0.107421875 0.1015625 0.06738281 0.09277344 -0.043945312 -0.010681152 0.06201172 -0.033691406 -0.017333984 0.025268555 -0.12011719 -0.014526367 -0.103027344 -0.037353516 0.076171875 -0.0008163452 0.030639648 0.037597656 -0.07421875 -0.15136719 -0.047607422 -0.08544922 -0.13769531 -0.02722168 0.057128906 -0.2578125 -0.061035156 0.27148438 -0.19335938 -0.08300781 -0.060058594 0.080566406 -0.064941406 0.015319824 0.10595703 -0.15039062 0.045654297 -0.05883789 0.04663086 -0.18554688 0.0009422302 0.076660156 0.13769531 -0.0068359375 -0.079589844 0.114746094 0.015258789 0.17675781 0.12109375 -0.25 0.18847656 -0.0013656616 -0.034179688 -0.055419922 0.0126953125 -0.08154297 -0.111816406 -0.13574219 -0.080566406 0.17773438 0.015991211 0.052734375 -0.012634277 0.04663086 -0.024047852 0.20019531 -0.016479492 -0.118652344 -0.009521484 -0.19726562 0.12158203 0.25 0.08105469 0.018676758 -0.13671875 -0.16113281 -0.061279297 0.09863281 0.13671875 0.21875 -0.0043029785 0.1328125 -0.10107422 0.12988281 0.07421875 -0.01965332 -0.007232666 0.040039062 -0.059326172 0.045410156 -0.08642578 -0.03881836 0.037597656 -0.047607422 0.05517578 -0.017822266 -0.025512695 -0.00579834 -0.111816406 0.047851562 -0.0859375 -0.047851562 0.15625 0.103027344 0.038085938 -0.024414062 -0.103515625 -0.103515625 0.009643555 0.05493164 0.091796875 0.053710938 0.051757812 -0.015319824
fatal 0.0073242188 -0.052246094 0.23535156 0.107421875 -0.059326172 -0.1640625 0.13183594 -0.056640625 0.28515625 0.36328125 0.15820312 -0.22558594 -0.31835938 -0.016113281 0.103027344 0.080078125 -0.25195312 -0.00011587143 0.18066406 0.022338867 0.00793457 -0.09375 -0.1953125 0.026733398 -0.14941406 -0.18261719 -0.09423828 -0.032958984 0.28320312 -0.06591797 -0.014160156 -0.20214844 -0.026489258 -0.19238281 -0.17285156 0.040283203 -0.015991211 -0.095214844 0.23828125 -0.04272461 0.091796875 -0.3125 0.12158203 0.04711914 0.016235352 -0.026489258 0.18847656 0.14941406 -0.0625 0.17285156 0.0234375 0.18066406 -0.021728516 -0.01373291 -0.04345703 -0.19726562 0.046142578 0.114746094 -0.10107422 -0.12011719 0.17089844 0.32617188 0.12207031 0.032958984 0.0390625 0.008056641 0.21679688 -0.096191406 -0.45898438 0.010009766 -0.036376953 -0.17578125 -0.1796875 -0.16796875 -0.34960938 0.048095703 -0.05859375 -0.10595703 0.01574707 0.45507812 0.1328125 -0.34179688 0.06225586 -0.125 -0.24511719 -0.08496094 -0.3125 0.04272461 -0.029541016 -0.15625 0.050048828 -0.24511719 0.050048828 -0.17480469 0.024658203 0.23144531 0.27148438 -0.21289062 0.1484375 0.14257812 0.0390625 -0.14355469 0.1875 -0.26953125 0.2109375 -0.14355469 0.16308594 -0.075683594 0.23730469 -0.25585938 -0.1796875 0.045410156 -0.08642578 -0.13671875 0.099121094 -0.2578125 -0.123046875 -0.0071411133 -0.08691406 0.19335938 -0.052246094 0.21191406 -0.22753906 -0.28515625 0.06689453 -0.26171875 0.0039978027 -0.3046875 0.095703125 0.08544922 -0.096191406 -0.15917969 -0.10449219 0.107421875 -0.091308594 -0.024414062 -0.064453125 -0.171875 -0.20019531 0.484375 -0.052978516 -0.00579834 -0.14550781 0.10595703 -0.24707031 -0.31445312 -0.11328125 0.33789062 0.09277344 -0.17285156 0.20800781 -0.171875 0.19238281 0.020751953 0.004272461 -0.02758789 0.109375 0.11621094 -0.19726562 -0.1015625 0.046142578 0.09033203 0.18261719 0.0625 0.080566406 0.06982422 0.007507324 -0.18164062 -0.08984375 -0.08984375 0.06640625 -0.064453125 -0.24316406 -0.28710938 -0.06591797 -0.032714844 0.08496094 0.2265625 -0.038085938 -0.025268555 0.22753906 0.14160156 -0.35742188 -0.22753906 -0.026245117 0.23632812 0.20019531 -0.13378906 0.0071105957 0.22167969 0.25585938 0.15820312 -0.095703125 -0.076660156 -0.026977539 0.024658203 0.16210938 -0.515625 -0.068847656 0.056640625 0.21386719 -0.16894531 -0.01159668 0.13867188 0.14648438 -0.3203125 -0.026000977 -0.16308594 0.11230469 -0.49023438 -0.20605469 0.171875 0.123535156 0.44335938 -0.22851562 -0.4296875 -0.006011963 -0.26171875 -0.06933594 0.08300781 -0.36914062 0.16503906 0.1953125 0.19335938 0.11767578 -0.004699707 0.22558594 0.20019531 -0.045654297 -0.0016174316 0.06689453 0.0050964355 0.11328125 -0.049072266 -0.16210938 -0.13671875 0.025634766 -0.16796875 0.14550781 0.25390625 -0.123535156 0.19335938 -0.025756836 -0.44726562 -0.10449219 0.048095703 0.13085938 -0.099609375 0.45703125 -0.46289062 0.39453125 0.056640625 -0.07080078 -0.0087890625 0.203125 -0.171875 0.048583984 -0.037597656 -0.26367188 -0.002090454 -0.17773438 -0.21777344 0.04272461 0.22167969 0.08544922 0.14941406 -0.022216797 -0.009643555 -0.28125 -0.12792969 0.106933594 0.18847656 -0.328125 -0.15722656 -0.15820312 -0.06542969 0.32421875 0.31835938 0.171875 -0.03540039 -0.03857422 0.12988281 -0.041259766 -0.123535156 -0.04345703 0.0034332275 -0.06640625 -0.052001953 -0.171875 0.025024414 0.31054688 -0.28710938 -0.041748047 0.37695312 -0.16503906 0.046875 -0.009887695 -0.3125 0.18457031 0.265625
give 0.06201172 -0.122558594 0.016845703 0.08691406 0.076660156 -0.0703125 0.14550781 -0.038085938 0.047607422 0.203125 -0.22460938 -0.122558594 -0.03466797 0.34765625 -0.056152344 0.26953125 0.08496094 0.07470703 -0.15917969 -0.020263672 -0.052490234 -0.053955078 0.19238281 0.22949219 0.046142578 -0.032470703 -0.11035156 -0.07910156 -0.060791016 0.17480469 -0.06347656 0.0047912598 -0.34375 0.076171875 -0.056640625 -0.12207031 0.16308594 0.015991211 -0.07470703 0.15136719 0.083496094 0.052978516 0.16894531 0.033447266 -0.052734375 -0.12890625 -0.10058594 -0.052490234 0.16210938 0.25976562 -0.123046875 0.20117188 0.06298828 -0.0033874512 -0.140625 0.03173828 -0.13671875 0.10546875 -0.079589844 -0.21289062 0.1796875 -0.22265625 -0.24707031 -0.125 0.12011719 -0.18652344 -0.028930664 0.022827148 -0.033203125 0.16308594 0.041015625 0.203125 -0.011047363 0.0056762695 -0.08691406 -0.17480469 0.20703125 0.2890625 0.1953125 0.109375 -0.08935547 0.20410156 -0.016723633 0.16015625 -0.05517578 -0.03540039 -0.10986328 -0.039794922 -0.10498047 -0.04345703 0.039794922 0.19726562 0.0029144287 -0.15039062 0.0625 -0.34570312 0.110839844 0.3671875 0.09423828 -0.034179688 0.010803223 -0.14746094 -0.045166016 -0.17871094 -0.095703125 -0.013061523 -0.03857422 -0.021240234 0.013549805 0.15332031 -0.07373047 -0.06689453 0.017822266 -0.24121094 0.1953125 0.08251953 0.080566406 0.06347656 0.14453125 -0.09082031 0.092285156 0.009033203 -0.103515625 0.25390625 -0.024414062 -0.0625 -0.009033203 -0.33398438 0.02734375 0.072265625 0.20898438 -0.08935547 -0.05053711 0.076660156 0.018066406 -0.14160156 0.20898438 0.16308594 -0.13867188 -0.0040283203 -0.044189453 0.091796875 -0.24609375 -0.14941406 -0.030761719 -0.014343262 -0.078125 -0.45898438 -0.076660156 -0.020629883 0.02319336 0.030395508 -0.1796875 0.014221191 -0.057861328 0.083984375 0.20019531 -0.296875 -0.018798828 -0.012451172 0.059326172 -0.07714844 -0.12988281 -0.08496094 0.029663086 -0.23242188 0.083496094 -0.064941406 -0.08544922 -0.16699219 -0.27539062 -0.13378906 0.02722168 0.079589844 0.080566406 -0.17285156 0.2421875 0.0390625 -0.22851562 0.18164062 -0.24414062 -0.23242188 0.10058594 0.055419922 -0.2734375 -0.17382812 -0.10595703 -0.043945312 0.0053100586 -0.034179688 0.19335938 -0.021972656 0.22558594 -0.043701172 0.055419922 -0.115234375 0.20214844 -0.18847656 -0.19726562 -0.18945312 -0.11376953 -0.00029945374 -0.16699219 0.071777344 0.0625 -0.020385742 0.041259766 0.06738281 0.014831543 -0.037109375 -0.048095703 0.16894531 0.16796875 0.20019531 0.060302734 0.040527344 0.22363281 -0.049316406 0.071777344 -0.107421875 0.10546875 -0.007019043 0.060302734 0.008056641 0.11328125 0.16992188 -0.053955078 -0.12890625 0.078125 0.21289062 0.1171875 -0.103515625 0.16015625 0.08691406 0.26953125 0.140625 0.072753906 -0.045166016 0.0021514893 -0.19140625 -0.023803711 -0.06347656 0.014526367 -0.043945312 0.13964844 0.119628906 0.005554199 0.12060547 0.014465332 -0.03466797 -0.017211914 0.15429688 0.046142578 0.083496094 0.064453125 0.052490234 -0.033203125 0.16308594 -0.21386719 -0.014770508 -0.13085938 -0.032226562 -0.053222656 -0.07324219 -0.015380859 0.051757812 -0.00045394897 0.068359375 -0.1640625 -0.14160156 0.14453125 0.044921875 0.15527344 -0.09277344 0.15234375 -0.106933594 0.022583008 -0.328125 0.06347656 0.044921875 -0.14550781 -0.068847656 0.17480469 0.16210938 0.053710938 0.15527344 0.008178711 -0.060302734 -0.114746094 -0.04638672 0.041992188 0.15332031 0.03955078 -0.036132812 -0.15527344 0.00091934204 0.050048828 -0.0625 0.021972656 -0.26953125
indian -0.31835938 0.04272461 0.107421875 0.33789062 -0.29296875 -0.12597656 -0.048095703 -0.03540039 -0.14941406 0.029663086 -0.06933594 -0.36328125 -0.10107422 -0.34179688 -0.12451172 0.16113281 -0.048583984 0.41601562 0.068847656 -0.26367188 -0.20703125 -0.21484375 0.04663086 -0.1875 -0.23828125 0.25390625 -0.34375 0.068359375 0.13574219 -0.06640625 0.45898438 0.014526367 -0.31445312 0.125 -0.32421875 0.20214844 -0.28125 0.06689453 0.22558594 -0.080566406 0.16308594 -0.15527344 0.18261719 0.26367188 0.27929688 -0.2265625 -0.25585938 -0.26367188 -0.07373047 0.07763672 0.1953125 0.03955078 0.265625 -0.0031585693 -0.21777344 0.024047852 -0.28125 -0.17773438 0.09277344 -0.20507812 -0.19140625 0.122558594 -0.28710938 -0.18457031 -0.17871094 -0.20898438 -0.16308594 -0.17773438 -0.067871094 -0.15527344 -0.041748047 0.27929688 -0.34960938 -0.25976562 -0.0049438477 -0.20507812 -0.063964844 0.08203125 -0.18554688 0.06542969 -0.25195312 -0.05102539 -0.22851562 -0.16992188 0.005279541 0.24121094 -0.26757812 0.071777344 -0.021118164 -0.075683594 -0.12988281 0.04272461 -0.05102539 -0.20019531 -0.30859375 0.40234375 0.17089844 0.10498047 0.54296875 -0.016235352 -0.13378906 0.29492188 0.36132812 0.020507812 0.07128906 0.23046875 -0.107421875 0.02331543 0.18261719 -0.025878906 -0.087402344 -0.16015625 -0.04711914 -0.15429688 -0.08935547 -0.15917969 0.037841797 -0.22851562 0.18164062 -0.08984375 0.10205078 0.05493164 -0.15234375 0.21582031 0.15234375 -0.07519531 -0.052978516 0.013671875 0.15527344 -0.13867188 -0.25 0.083984375 -0.030273438 0.24023438 0.037597656 -0.13671875 -0.453125 -0.1875 0.09765625 -0.04736328 0.15234375 -0.3203125 -0.072265625 -0.1171875 -0.36132812 -0.203125 0.14550781 -0.007446289 0.37304688 -0.060546875 0.22167969 -0.1328125 -0.15234375 -0.10107422 -0.34960938 -0.37695312 0.036621094 0.17089844 0.111328125 0.01953125 -0.030883789 -0.07128906 -0.13769531 -0.03515625 0.08105469 -0.40429688 0.19042969 -0.09472656 -0.09814453 0.24902344 -0.640625 0.08300781 0.07910156 -0.13769531 0.14355469 -0.43359375 0.45507812 -0.46484375 0.12695312 -0.31640625 0.18847656 0.068847656 -0.1953125 -0.18359375 -0.079589844 0.06933594 0.107910156 -0.115234375 -0.011291504 0.056884766 -0.20996094 0.0049438477 -0.22265625 -0.15917969 0.36132812 0.08691406 0.036621094 0.14453125 -0.04248047 0.025024414 -0.13574219 -0.087890625 0.051757812 -0.23046875 -0.30664062 0.23046875 0.027954102 -0.12890625 -0.24902344 0.23925781 0.057861328 0.26367188 -0.25390625 -0.34375 -0.017456055 0.22265625 0.27929688 0.041015625 -0.21484375 -0.087890625 -0.10058594 -0.09082031 0.22949219 0.15039062 -0.26953125 -0.0060424805 0.21484375 -0.31640625 -0.049316406 0.18847656 0.10107422 -0.2734375 -0.061279297 0.2109375 -0.12451172 0.0078125 0.22265625 0.016845703 0.16894531 0.21191406 0.41796875 0.072265625 0.12695312 0.037841797 -0.34960938 0.13964844 -0.009887695 0.14648438 -0.17578125 -0.16796875 0.3359375 -0.01586914 0.34765625 0.11230469 0.20214844 -0.17675781 -0.0546875 -0.096191406 0.19824219 -0.18652344 -0.099121094 0.09375 0.20800781 -0.11376953 -0.19042969 0.035888672 -0.018432617 0.079589844 0.23046875 -0.09033203 -0.25195312 -0.33398438 -0.123046875 0.10498047 0.19238281 -0.099121094 0.05493164 -0.25976562 -0.41601562 0.21191406 0.21484375 -0.055419922 -0.072265625 0.34765625 -0.12695312 -0.2109375 -0.22460938 0.16894531 0.234375 -0.072753906 -0.072753906 0.24902344 0.12451172 0.07373047 -0.032470703 -0.027832031 -0.11816406 0.049804688 0.025756836 0.14550781
compares 0.15527344 -0.051757812 0.2265625 -0.006164551 0.234375 0.28515625 -0.026977539 -0.25195312 0.41601562 -0.12792969 -0.39648438 -0.14648438 0.31640625 0.115234375 -0.12597656 0.41992188 -0.33984375 0.39453125 -0.15527344 -0.3671875 -0.14355469 0.06982422 -0.63671875 0.00970459 -0.32226562 0.18945312 -0.32421875 0.53515625 0.12158203 0.25390625 0.12451172 -0.037597656 0.095214844 0.28515625 0.022583008 -0.13671875 -0.6015625 -0.034423828 0.19042969 0.26367188 0.29492188 -0.13867188 -0.029174805 0.30273438 -0.19042969 -0.08691406 -0.015625 -0.0010299683 -0.008666992 -0.17871094 -0.22460938 -0.20410156 -0.22851562 -0.25976562 -0.17382812 -0.17285156 -0.25195312 0.04638672 0.25 0.18164062 -0.09423828 0.27539062 -0.059326172 -0.23144531 0.18457031 0.16308594 -0.18164062 -0.19042969 0.18359375 -0.25585938 0.04711914 -0.24707031 0.56640625 0.20800781 -0.14746094 -0.16796875 -0.11425781 0.13183594 -0.14648438 0.31445312 0.024780273 -0.20996094 -0.32617188 0.22363281 -0.03491211 -0.15039062 -0.01550293 -0.023925781 -0.2734375 0.07861328 0.28125 -0.06933594 0.056152344 0.21386719 0.056152344 -0.26953125 0.064453125 0.10107422 -0.0050354004 -0.045410156 0.036376953 -0.15429688 -0.2734375 0.25 -0.22558594 -0.111816406 -0.18164062 0.10595703 -0.25390625 -0.057617188 0.19726562 -0.010375977 -0.12597656 0.21289062 0.12792969 0.265625 0.091796875 -0.041748047 -0.16210938 0.39648438 0.017456055 0.15625 -0.08496094 -0.109375 0.3046875 0.08300781 0.119628906 -0.05859375 0.079589844 0.28515625 -0.31054688 -0.12597656 -0.03564453 0.12158203 0.07763672 0.012817383 0.16015625 0.26757812 -0.087890625 -0.053710938 0.16308594 0.41992188 -0.034423828 0.2578125 0.27734375 0.33398438 0.053710938 -0.24902344 -0.27148438 0.13867188 0.56640625 -0.029418945 -0.10058594 0.19726562 0.060546875 -0.0018539429 -0.328125 0.10449219 0.022460938 -0.23925781 0.34375 0.16601562 0.080078125 -0.24121094 0.07519531 0.103515625 0.31835938 -0.16992188 0.07910156 0.030639648 -0.29882812 -0.15234375 0.19042969 -0.29101562 -0.22265625 0.27539062 -0.095703125 0.107421875 0.28125 0.25195312 -0.2265625 -0.055419922 0.015380859 0.060546875 -0.10107422 0.049316406 -0.115722656 0.13085938 -0.19921875 -0.025512695 0.21191406 -0.016113281 0.037109375 0.061035156 0.061035156 0.51953125 0.037109375 -0.15429688 -0.18652344 -0.1484375 -0.16308594 -0.04296875 0.13476562 0.16308594 -0.25195312 0.40429688 -0.51171875 0.036865234 -0.16992188 -0.018188477 0.14257812 0.10986328 0.12890625 0.068359375 -0.32226562 -0.035888672 0.2578125 0.21875 -0.061767578 -0.11621094 0.036376953 0.28710938 0.20996094 -0.20507812 0.15429688 -0.11230469 -0.14941406 0.015075684 -0.028930664 0.18457031 0.015625 0.110839844 -0.015197754 0.2890625 0.18457031 0.0013275146 0.32226562 -0.31054688 0.26171875 0.4609375 -0.034179688 0.0059814453 0.19628906 -0.0030517578 -0.28515625 -0.11035156 -0.25195312 0.19433594 -0.24121094 -0.05517578 0.109375 -0.15234375 -0.045898438 0.23925781 0.04321289 -0.087890625 -0.09472656 -0.11767578 -0.060546875 -0.18945312 -0.2109375 0.22167969 0.0056152344 -0.032470703 0.140625 0.07080078 0.10888672 -0.27539062 -0.0026397705 0.24121094 0.1484375 0.015014648 -0.033935547 -0.06738281 0.099609375 -0.1875 -0.27539062 0.22167969 -0.016723633 -0.37109375 -0.21777344 0.15234375 -0.6171875 -0.0703125 0.05444336 -0.37695312 0.052490234 -0.049316406 -0.008361816 -0.2578125 -0.40820312 0.014404297 -0.2890625 0.32421875 -0.27539062 0.060546875 -0.027832031 -0.08105469 -0.2734375 0.1328125
traffic 0.36328125 0.036621094 0.11621094 -0.1328125 0.05859375 -0.2734375 -0.14941406 0.001953125 -0.041015625 0.09667969 -0.040283203 0.072753906 -0.13671875 -0.16113281 0.0062561035 -0.46875 -0.051513672 -0.040283203 0.06738281 -0.37109375 0.11376953 -0.044921875 -0.19140625 -0.13671875 -0.024536133 -0.27734375 0.21582031 -0.041259766 0.10888672 0.0059509277 0.05908203 -0.23144531 0.05444336 -0.22070312 -0.005004883 -0.1328125 0.1875 0.06225586 -0.115722656 0.026733398 0.052978516 0.04638672 -0.025634766 -0.18066406 -0.28320312 -0.32226562 0.020996094 0.17382812 0.041259766 0.25976562 -0.16113281 0.13574219 -0.05493164 -0.08300781 -0.057373047 0.014160156 -0.09667969 0.38867188 0.0040283203 -0.041748047 0.06347656 -0.14941406 -0.3046875 -0.18066406 0.19824219 0.3203125 -0.27539062 0.022460938 -0.051513672 0.09033203 0.059814453 0.017944336 0.36523438 -0.17480469 0.029052734 -0.16503906 0.00060272217 -0.018310547 0.10644531 -0.107910156 -0.048828125 0.29101562 0.25390625 -0.12109375 -0.14160156 -0.0087890625 -0.35351562 0.016845703 -0.10107422 0.171875 0.18652344 -0.140625 -0.012329102 -0.11621094 -0.02368164 0.0234375 -0.15722656 -0.27148438 -0.018188477 0.23730469 0.25 -0.10107422 0.21191406 -0.03881836 0.34375 -0.09863281 -0.08642578 0.13867188 -0.21289062 -0.020263672 -0.044677734 -0.16015625 0.06640625 -0.31445312 0.1328125 -0.3671875 -0.09375 -0.061523438 0.002822876 0.08203125 -0.29296875 0.37304688 -0.39453125 -0.0014038086 -0.03540039 0.33007812 -0.083984375 0.022949219 0.21679688 -0.12792969 -0.28710938 -0.036132812 0.011474609 0.02355957 0.20996094 -0.22753906 0.06689453 0.08105469 -0.049316406 0.15722656 0.03540039 -0.26171875 -0.026245117 0.25 -0.14355469 -0.20898438 0.03125 -0.14648438 -0.19238281 -0.059326172 0.09814453 0.033935547 0.08300781 0.16796875 -0.23242188 0.05908203 0.15429688 -0.1015625 -0.15332031 0.007507324 -0.43554688 0.27539062 0.004211426 0.049804688 -0.15332031 0.00579834 -0.026367188 -0.20507812 0.17578125 -0.29101562 -0.10253906 0.15917969 0.056152344 0.04272461 -0.13671875 0.051513672 -0.03173828 -0.106933594 -0.017333984 -0.0009765625 0.22363281 0.028076172 -0.11035156 0.05102539 0.23046875 0.13867188 0.10253906 0.03857422 0.09814453 0.064941406 0.055664062 0.14648438 -0.27734375 0.012634277 0.09277344 0.22363281 -0.004180908 -0.16796875 -0.10888672 -0.20703125 0.10205078 0.09765625 0.21679688 -0.13574219 0.13964844 0.18652344 -0.100097656 -0.05517578 0.234375 0.38476562 -0.067871094 0.083496094 -0.1015625 0.060546875 -0.21777344 0.21484375 0.057373047 0.009277344 -0.10888672 0.09472656 0.020263672 -0.10986328 0.18359375 -0.17382812 -0.04345703 -0.17675781 -0.07080078 0.06738281 0.14550781 0.064941406 0.07373047 -0.0014801025 -0.19140625 -0.24316406 0.057861328 -0.05908203 -0.053466797 -0.08203125 0.18066406 0.023925781 0.076171875 0.0056762695 -0.18945312 -0.4140625 -0.2890625 -0.18066406 -0.07128906 0.025024414 -0.13574219 -0.29296875 0.049804688 -0.03955078 -0.296875 0.38671875 0.043945312 -0.13671875 0.10205078 0.021850586 -0.22070312 -0.055664062 0.049316406 0.011657715 0.24609375 0.20703125 -0.06201172 0.29101562 -0.26171875 -0.140625 -0.546875 0.05102539 -0.010498047 0.115234375 -0.19335938 -0.0016479492 0.13378906 -0.19921875 -0.24121094 -0.072753906 0.022338867 -0.18359375 -0.27929688 0.27539062 0.24804688 -0.13183594 0.19921875 0.16894531 -0.011657715 0.0079956055 0.19238281 0.15234375 0.20507812 -0.103515625 0.24804688 0.083984375 0.083984375 0.2890625 0.007598877 -0.12060547 0.16113281 -0.19335938
price 0.14160156 -0.02709961 -0.18457031 0.17480469 0.103027344 -0.17089844 0.25976562 -0.083496094 0.2734375 0.31054688 -0.33203125 -0.031982422 -0.026855469 0.024902344 -0.22167969 0.40429688 -0.05517578 -0.140625 0.24609375 -0.22363281 -0.057128906 -0.016113281 0.014282227 -0.12988281 -0.16308594 0.17089844 0.072265625 0.26367188 0.0070495605 -0.0115356445 0.12890625 0.12597656 -0.103027344 -0.088378906 -0.05517578 -0.083496094 0.045410156 0.12060547 0.06689453 0.13964844 0.019042969 0.10644531 0.22558594 -0.49023438 -0.091308594 0.1484375 0.27539062 0.21386719 -0.12060547 -0.05883789 0.28125 -0.084472656 -0.018554688 -0.24023438 0.18457031 -0.030151367 -0.080078125 0.08984375 0.08496094 0.12597656 -0.08691406 0.21484375 -0.08154297 0.1953125 0.21386719 -0.37304688 -0.08642578 -0.006134033 0.09326172 0.19824219 -0.010131836 -0.24902344 0.26953125 -0.025878906 -0.21777344 -0.024414062 0.17089844 0.029907227 0.029663086 -0.050048828 0.16601562 0.11425781 -0.17675781 -0.0138549805 0.005126953 -0.03112793 -0.079589844 0.19628906 0.013671875 0.19824219 0.37695312 0.07910156 -0.19335938 0.024414062 0.20214844 -0.22070312 -0.23632812 -0.22460938 0.055908203 0.05883789 0.17480469 -0.25585938 -0.22851562 0.06298828 0.13769531 -0.05908203 -0.122558594 0.23242188 -0.11669922 -0.13769531 0.09423828 -0.22753906 -0.09326172 0.07714844 0.21679688 0.17285156 -0.087890625 -0.1796875 0.19921875 -0.19921875 0.38085938 0.18457031 -0.23632812 0.018920898 -0.007446289 -0.010498047 -0.05834961 -0.31445312 0.04248047 -0.022460938 -0.125 0.14941406 -0.15820312 -0.10888672 -0.27734375 0.03466797 0.21289062 0.05078125 -0.17285156 0.19726562 0.119140625 -0.2109375 -0.020141602 -0.10986328 -0.063964844 -0.23339844 0.41210938 0.002243042 -0.2421875 -0.12207031 0.019897461 0.045410156 0.09716797 -0.035888672 0.053466797 -0.00078964233 -0.104003906 -0.009155273 -0.17285156 -0.24609375 -0.23339844 0.10205078 0.20117188 -0.0095825195 -0.15234375 0.111816406 -0.12011719 -0.13378906 0.037597656 0.14746094 -0.28710938 -0.16503906 0.016357422 -0.008178711 -0.09326172 -0.33984375 -0.10205078 -0.26757812 0.068359375 0.09423828 -0.23632812 -0.10644531 0.16992188 0.22558594 0.084472656 -0.15820312 0.115234375 0.22167969 -0.13769531 0.08642578 -0.26171875 0.04663086 -0.12158203 -0.23046875 -0.16601562 0.030761719 0.032226562 0.096191406 -0.0016174316 -0.20605469 -0.015197754 0.080566406 -0.17089844 -0.07519531 -0.079589844 -0.0060424805 -0.08886719 -0.040527344 -0.0134887695 0.064453125 0.010681152 0.17773438 -0.029052734 0.30078125 -0.26367188 0.40039062 0.25195312 0.12890625 -0.140625 0.18945312 0.052978516 0.16015625 -0.061279297 0.17285156 0.008422852 0.03125 -0.061523438 -0.16503906 0.1796875 0.24707031 0.0099487305 -0.11621094 0.22558594 0.019042969 0.018310547 0.0074157715 0.4140625 0.088378906 0.019897461 0.20214844 0.04663086 0.03515625 -0.15722656 0.004180908 0.09765625 0.12792969 -0.11816406 -0.18261719 0.1875 -0.15917969 0.16699219 0.15917969 -0.083496094 -0.0057678223 0.03540039 0.057617188 0.048583984 0.049560547 0.049316406 0.07421875 0.06982422 -0.359375 0.088378906 -0.27148438 0.16699219 -0.056396484 -0.30273438 -0.4140625 0.12792969 0.050048828 0.16210938 0.17578125 0.17871094 0.012817383 0.053222656 0.5 0.026367188 0.0859375 0.045654297 -0.099121094 0.0703125 0.14550781 0.03540039 -0.05859375 0.100097656 -0.07128906 -0.15234375 0.25195312 -0.13769531 -0.049804688 -0.07714844 0.022827148 -0.31054688 0.0075683594 0.36914062 0.16503906 0.19335938 0.014343262 0.1484375 -0.038330078
impacted -0.26953125 0.10986328 0.0079956055 0.14941406 -0.21777344 0.09863281 -0.08496094 0.08300781 0.38867188 0.16113281 -0.040039062 -0.25195312 -0.055908203 -0.15332031 0.38476562 -0.24316406 0.06542969 -0.0134887695 0.13671875 -0.09814453 -0.14355469 0.1328125 -0.24609375 -0.29882812 -0.052001953 0.17871094 -0.034423828 -0.08154297 0.16894531 0.18457031 0.25390625 -0.1953125 0.14941406 0.045410156 0.328125 0.014831543 -0.07421875 -0.1484375 0.09472656 0.10839844 -0.014587402 0.14941406 0.012817383 -0.0079956055 0.17578125 -0.42578125 -0.096191406 -0.029052734 0.033691406 -0.29101562 -0.055664062 -0.38867188 -0.16503906 -0.059570312 -0.026733398 -0.053222656 -0.12011719 0.18261719 0.067871094 -0.08496094 -0.07470703 -0.27148438 0.015136719 -0.05053711 0.106933594 -0.16015625 -0.045166016 0.2734375 -0.07519531 -0.3046875 -0.087402344 -0.453125 0.0625 0.01361084 -0.13378906 -0.359375 0.07080078 -0.0047912598 -0.13085938 0.19335938 0.07714844 -0.045654297 -0.12451172 -0.034179688 0.13574219 0.080078125 -0.22949219 0.29101562 -0.29101562 -0.046142578 0.55078125 -0.016235352 0.26171875 0.06591797 -0.15136719 -0.29492188 -0.06738281 -0.007507324 -0.1015625 0.018066406 0.06298828 -0.06933594 0.07714844 0.22851562 -0.16503906 -0.33007812 -0.14746094 -0.32226562 0.14355469 -0.51953125 -0.17382812 -0.24414062 0.067871094 -0.06738281 0.063964844 -0.072265625 0.11230469 -0.140625 0.38476562 0.38476562 -0.107910156 0.17382812 -0.024536133 -0.052001953 -0.30273438 0.08935547 -0.23339844 0.048583984 -0.049316406 0.09082031 0.028320312 0.032958984 -0.114746094 0.08984375 -0.07763672 -0.13964844 -0.0019683838 0.07324219 0.20703125 -0.083984375 0.022338867 0.01965332 0.023803711 0.025024414 -0.048339844 0.04736328 0.47851562 -0.3046875 -0.32421875 -0.08154297 0.16113281 0.037841797 9.1552734e-05 0.18261719 -0.21679688 0.109375 -0.087890625 0.09033203 -0.08300781 -0.051757812 0.38671875 0.09863281 -0.1015625 0.09082031 -0.0073547363 0.016357422 0.040527344 0.09326172 0.171875 -0.08935547 -0.16210938 -0.12597656 0.025146484 -0.19140625 0.21386719 0.110839844 0.20117188 0.13964844 -0.06640625 0.084472656 -0.23046875 0.12060547 -0.06347656 0.1015625 -0.29296875 -0.04736328 0.016845703 0.31054688 -0.12402344 0.18457031 0.016967773 -0.07421875 0.15625 0.052734375 -0.13867188 0.17089844 0.21777344 -0.17480469 0.33984375 -0.08984375 0.18554688 0.14648438 -0.103515625 -0.3984375 -0.22558594 -0.16015625 -0.26757812 -0.100097656 -0.02709961 -0.05053711 0.15234375 0.12402344 -0.11669922 0.19140625 0.27539062 -0.14550781 0.2109375 -0.10986328 -0.07910156 -0.16210938 -0.06542969 0.17578125 -0.08251953 -0.040771484 0.20703125 0.017211914 0.10986328 -0.111816406 -0.06542969 0.17578125 0.015319824 0.3984375 0.043945312 0.012634277 0.14257812 0.001625061 0.104003906 -0.296875 0.122558594 0.26171875 -0.19921875 0.08154297 0.17675781 0.05419922 -0.203125 -0.21679688 -0.14648438 0.12011719 -0.23046875 -0.46289062 -0.032226562 0.03857422 0.08496094 -0.13867188 0.15429688 -0.5234375 0.05419922 -0.022705078 0.18066406 -0.21191406 -0.25585938 -0.14453125 -0.109375 0.13476562 0.18261719 0.17578125 0.04711914 -0.018188477 0.16503906 -0.140625 -0.22558594 0.33398438 -0.171875 -0.08935547 -0.060791016 -0.31640625 -0.015075684 0.41210938 -0.07421875 -0.075683594 -0.057128906 0.119628906 0.036865234 0.07470703 0.24707031 -0.025390625 -0.12060547 0.24121094 0.08642578 -0.20117188 -0.0039978027 0.08154297 0.051513672 -0.13476562 0.123046875 0.008178711 -0.1953125 -0.10205078 0.10449219 -0.29492188
